tree
version=v4
num_class=1
num_tree_per_iteration=1
label_index=0
max_feature_idx=9
objective=regression
feature_names=hour_of_day price_diff temp_c volume_lag_1h volume_lag_24h avg_volume_7d pct_change_price_7d pct_change_volume_7d traffic_score promo_interaction
feature_infos=[0:23] [-0.049968987738603997:0.049972987764327098] [15.00008305013607:29.99684057718893] [102.16327917063496:270] [102.16327917063496:270] [196.80236949349171:270] [-9.9056901098766321:10.950147862393534] [-60.409380923688914:164.28282470166323] [0.70000252966339127:0.99995239014937642] [-0.049968987738603997:0.0497515469345872]
tree_sizes=5729 6088 6030 5987 6070 6080 6068 6015 6032 6072 5989 6020 6041 6030 6022 5986 6028 6009 6008 6072 6105 6055 6061 6043 6069 5981 6096 6094 6063 6084 6047 5956 6015 5961 6036 6032 6058 6026 6060 6031 6011 6090 6006 6017 6098 6088 6067 6042 6103 5996 6090 6055 6045 6011 6087 5977 6047 6084 6005 6073 6077 6022 6061 6048 6097 5991 6058 6124 6027 5987 6025 6080 6047 5975 6113 6101 5889 6080 6059 6055 6055 6007 6107 6041 5977 6022 6052 5973 6042 6098 6049 6048 6072 5983 6139 5960 6020 6000 6047

Tree=0
num_leaves=64
num_cat=0
split_feature=3 3 0 6 2 6 0 1 2 9 5 7 7 0 5 4 1 6 0 1 6 6 7 8 5 2 2 3 5 5 2 0 1 4 1 0 7 1 6 1 4 1 3 8 6 1 6 8 2 3 1 9 7 9 1 3 2 1 9 6 8 1 8
split_gain=252193 30877 15352.8 16288.3 13474.2 16628.1 16304.7 14615.9 12923.1 12728.7 16649.3 11991.6 29638.8 16411.1 16266 12798.8 12214.1 11640.5 11611.3 16851.7 11328.3 13425.3 11121.9 11117.9 20321.7 16347.7 10888.6 10821 10778.9 14751.5 10879 11426.3 11758.9 10680.6 12389.7 10532.9 12129.7 10396.7 10362.6 10064.6 9947.86 9626.29 15214.1 15271.4 9772.6 9613.79 16897.7 11876.5 11612.2 9379.71 9588.79 9318.36 9261.55 9189.11 32166.2 9404.03 8981.6 9149.05 8844.08 8703.16 8488.19 9181.48 8380.9
threshold=250.00272247775027 248.51045980723026 19.500000000000004 4.04178111179115 17.345440976083285 4.5505693097095312 13.500000000000002 -0.0021808433365173995 15.063348585539098 0.040759357057888558 239.38664418208114 20.030472423733119 2.7559636324694599 11.500000000000002 240.89951211443361 264.99263633426239 0.016633460907470806 2.1579179878002068 5.5000000000000009 -0.0067932781159375987 0.61188866585761603 3.658079735097973 -11.310082622729546 0.99203348879313191 234.46116533861283 21.278894488841814 29.180995638472989 244.27932683316337 230.40438809823084 235.09881431996249 29.728370470404897 15.500000000000002 -0.038488187172562242 249.98082630846713 -0.039667062126422195 18.500000000000004 -11.974633506297328 0.045120232187482158 -6.9009632558150775 0.0047732055720616012 131.64960940646839 0.023077043038252702 140.991491377318 0.71784776276753215 6.8053199177685215 0.0032439248441154503 2.4663896396173546 0.81291295238640704 15.885846025125129 249.67073177293943 -0.024382939946126347 -0.035578362011489846 70.363056449139023 -0.013071806059029299 -0.031369127466959794 182.58377447692217 19.213771499112159 -0.043474611047029398 0.048823076410160003 4.489612997572527 0.7058038269555047 -0.027698112099441344 0.75850701573762869
decision_type=2 2 2 2 2 2 2 2 2 2 2 2 2 2 2 2 2 2 2 2 2 2 2 2 2 2 2 2 2 2 2 2 2 2 2 2 2 2 2 2 2 2 2 2 2 2 2 2 2 2 2 2 2 2 2 2 2 2 2 2 2 2 2
left_child=1 9 3 -2 -5 6 7 59 62 11 -11 12 14 26 -1 41 -16 22 19 27 -4 45 35 -24 25 -25 -13 -17 -15 30 31 -30 33 34 -33 -10 -37 -27 -34 -28 -7 60 44 -44 -43 48 47 -47 -22 50 -19 -50 58 54 -31 -56 -54 -58 -51 -6 61 -14 -3
right_child=2 8 20 4 5 40 -8 -9 17 10 -12 13 15 28 16 18 -18 49 -20 -21 21 -23 23 24 -26 37 39 -29 29 53 -32 32 38 -35 -36 36 -38 -39 -40 -41 -42 42 43 -45 -46 46 -48 -49 51 52 -52 -53 56 -55 55 -57 57 -59 -60 -61 -62 -63 -64
leaf_value=234.81390009119571 234.96656035525677 233.82357643508911 234.91641741382213 235.03084171547059 234.30355275863408 233.88152489089964 234.09193954086302 235.00403547000886 234.69684171404199 234.7049926846822 233.77751457595824 234.85277324093221 234.28176599407195 235.00480833355584 234.22421890044211 234.06035931423733 234.97242396736144 235.17242397689819 234.8536514836947 234.8712196143014 233.74486076736449 234.92359392142296 234.77718660410119 234.78405036565991 234.81132395656647 234.17710230791567 234.77344328509844 235.17242397689819 234.50604260734673 235.07242397212983 233.8875238456726 234.97382555007934 233.76811729812621 234.13277696355183 234.04254669570923 234.82159434084375 234.03564470672606 234.94183215522764 234.79546873925295 234.30312339891705 234.88176019366469 234.0671748867035 233.62819336318969 234.87157472834102 235.17242397689819 234.19736072285968 234.26809447734556 234.89538689444615 233.89008140945435 234.81195755762602 234.41968885456433 234.87135481286049 233.97015663528441 234.81956401751108 234.97242396736144 233.92498082224529 233.73557434463501 234.71458995746431 234.14629320526123 234.93513393147785 234.95018103651776 234.92454631805418 234.55758727046421
leaf_weight=1950 1041 1.999999999999998 166 46 8.0000000000000053 0.999999999999999 4.9999999999999991 9.9999999999999982 401 60 1.9999999999999989 215 4 11.999999999999998 7.9999999999999982 7 3 1.9999999999999989 30 6.9999999999999991 0.999999999999999 40 1897 9.0000000000000018 31 16.000000000000004 13.000000000000002 0.99999999999999989 44 6 1.9999999999999989 5 0.999999999999999 6 1.999999999999998 108 1.9999999999999989 1.9999999999999989 54 6.9999999999999991 175 3.9999999999999991 0.999999999999999 81 0.99999999999999989 3.0000000000000062 11.999999999999998 12.999999999999998 1.0000000000000024 977 10.999999999999998 30 2.0000000000000027 90 0.99999999999999811 6 1.000000000000006 20.999999999999996 1.9999999999999989 2.9999999999999991 326 4.9999999999999982 7
leaf_count=1950 1041 2 166 46 8 1 5 10 401 60 2 215 4 12 8 7 3 2 30 7 1 40 1897 9 31 16 13 1 44 6 2 5 1 6 2 108 2 2 54 7 175 4 1 81 1 3 12 13 1 977 11 30 2 90 1 6 1 21 2 3 326 5 7
internal_value=234.821 234.793 234.935 234.949 234.876 234.841 234.605 234.727 234.773 234.817 234.675 234.82 234.829 234.773 234.812 234.9 234.428 234.774 234.74 234.513 234.866 234.782 234.762 234.773 234.637 234.436 234.832 234.199 234.713 234.697 234.619 234.632 234.713 234.442 234.708 234.721 234.807 234.262 234.777 234.609 234.876 234.917 234.824 234.856 234.288 234.687 234.552 234.765 234.805 234.802 234.535 234.84 234.806 234.784 234.535 234.075 234.612 234.67 234.811 234.476 234.942 234.639 234.394
internal_weight=8000 6445 1555 1289 248 202 26 21 3491 2954 62 2892 2428 464 1961 467 11 3482 45 15 266 100 2466 1955 58 27 235 8 229 217 114 112 68 13 7 511 110 18 55 20 176 422 87 82 5 60 28 16 32 1016 13 31 1003 103 13 7 24 22 979 11 335 9 9
internal_count=8000 6445 1555 1289 248 202 26 21 3491 2954 62 2892 2428 464 1961 467 11 3482 45 15 266 100 2466 1955 58 27 235 8 229 217 114 112 68 13 7 511 110 18 55 20 176 422 87 82 5 60 28 16 32 1016 13 31 1003 103 13 7 24 22 979 11 335 9 9
is_linear=0
shrinkage=1


Tree=1
num_leaves=64
num_cat=0
split_feature=3 3 0 6 2 6 0 1 2 9 5 7 7 0 5 4 1 6 0 1 6 6 7 8 5 2 2 3 5 5 2 0 1 0 8 6 0 7 1 1 4 1 3 8 6 1 6 8 2 3 1 9 7 6 9 4 6 2 1 9 6 8 1
split_gain=247174 30262.6 15047.3 15964.2 13206 16297.2 15980.3 14325 12665.9 12475.4 16318 11752.9 29049 16084.5 15942.3 12544.1 11971 11408.9 11380.2 16516.4 11102.9 13158.1 10900.5 10896.7 19917.3 16022.3 10672 10605.7 10564.4 14458 10662.5 11199 11591.5 13958.5 14658.5 10821.4 10323.3 11888.3 10189.8 9864.35 9749.9 9434.72 14911.4 14967.5 9578.13 9422.48 16561.5 11640.1 11381.1 9193.05 9397.97 9132.93 9077.24 9058.84 13360.8 8931.8 10703.4 8802.87 8966.98 8668.08 8529.96 8319.27 8998.77
threshold=250.00272247775027 248.51045980723026 19.500000000000004 4.04178111179115 17.345440976083285 4.5505693097095312 13.500000000000002 -0.0021808433365173995 15.063348585539098 0.040759357057888558 239.38664418208114 20.030472423733119 2.7559636324694599 11.500000000000002 240.89951211443361 264.99263633426239 0.016633460907470806 2.1579179878002068 5.5000000000000009 -0.0067932781159375987 0.61188866585761603 3.658079735097973 -11.310082622729546 0.99203348879313191 234.46116533861283 21.278894488841814 29.180995638472989 244.27932683316337 230.40438809823084 235.09881431996249 29.728370470404897 15.500000000000002 -0.026707578722856947 20.500000000000004 0.93908757361522555 -6.9009632558150775 18.500000000000004 -11.974633506297328 0.045120232187482158 0.0047732055720616012 131.64960940646839 0.023077043038252702 140.991491377318 0.71784776276753215 6.8053199177685215 0.0032439248441154503 2.4663896396173546 0.81291295238640704 15.885846025125129 249.67073177293943 -0.024382939946126347 -0.035578362011489846 70.363056449139023 -2.2818256505836878 -1.0000000180025095e-35 237.61815885847219 -5.8804879564223809 19.213771499112159 -0.043474611047029398 0.048823076410160003 4.489612997572527 0.7058038269555047 -0.027698112099441344
decision_type=2 2 2 2 2 2 2 2 2 2 2 2 2 2 2 2 2 2 2 2 2 2 2 2 2 2 2 2 2 2 2 2 2 2 2 2 2 2 2 2 2 2 2 2 2 2 2 2 2 2 2 2 2 2 2 2 2 2 2 2 2 2 2
left_child=1 9 3 -2 -5 6 7 60 -3 11 -11 12 14 26 -1 41 -16 22 19 27 -4 45 36 -24 25 -25 -13 -17 -15 30 31 -30 33 34 -33 -34 -10 -38 -27 -28 -7 61 44 -44 -43 48 47 -47 -22 50 -19 -50 59 54 -31 -56 -57 -54 -59 -51 -6 62 -14
right_child=2 8 20 4 5 40 -8 -9 17 10 -12 13 15 28 16 18 -18 49 -20 -21 21 -23 23 24 -26 38 39 -29 29 53 -32 32 35 -35 -36 -37 37 -39 -40 -41 -42 42 43 -45 -46 46 -48 -49 51 52 -52 -53 57 -55 55 56 -58 58 -60 -61 -62 -63 -64
leaf_value=-0.0066628780419627819 0.14447078041596326 -0.42189494027031793 0.094829275112554262 0.20810932574064836 -0.51190671220421746 -0.92971427917480476 -0.72140382003784187 0.18157113742828368 -0.12255066151036288 -0.11448121134440103 -1.0326844787597655 0.031821541431338293 -0.53347563266754139 0.18233628431955975 -0.5904472529888154 -0.75266820498875209 0.15027576446533197 0.34827575683593753 0.032691005865732828 0.050083449227469309 -1.0650117492675781 0.10193400788307191 -0.04300922592910391 -0.036214099460177937 -0.0092132537211141279 -0.63709265887737265 -0.046715114300067598 0.3482757568359372 -0.31144177873195572 -0.99249000549316235 -0.92377536773681646 0.046582223971684746 -1.0419878387451171 -0.70399108886718753 -0.59787512588500979 0.010024157345972277 0.00095443159617759562 -0.77713569641113278 0.11998986244201661 -0.51233179364885606 0.060518625947407312 -0.74592082023620609 -1.1805125427246095 0.050435015695330536 0.3482757568359372 -0.61703680674234884 -0.54701043079296752 0.074009063060467062 -0.92124336242675453 -0.0085859846560896475 -0.39693199157714842 0.050217302083969122 -0.84196884155273288 0.013690315630286932 0.23180435752868636 -0.024304786258273647 -0.54567921093532046 -1.0742053222656174 -0.10497990744454523 -0.66759368896484372 0.11335861841837565 0.12825525985722161 0.1028768882751465
leaf_weight=1950 1041 8.9999999999999982 166 46 8.0000000000000053 0.999999999999999 4.9999999999999991 9.9999999999999982 401 60 1.9999999999999989 215 4 11.999999999999998 7.9999999999999982 7 3 1.9999999999999989 30 6.9999999999999991 0.999999999999999 40 1897 9.0000000000000018 31 16.000000000000004 13.000000000000002 0.99999999999999989 44 2.0000000000000027 1.9999999999999989 12.000000000000005 0.999999999999999 5.9999999999999991 4.9999999999999991 44 108 1.9999999999999989 1.9999999999999989 6.9999999999999991 175 3.9999999999999991 0.999999999999999 81 0.99999999999999989 3.0000000000000062 11.999999999999998 12.999999999999998 1.0000000000000024 977 10.999999999999998 30 2.0000000000000027 80 5.0000000000000027 9.0000000000000018 6.9999999999999956 1.000000000000006 20.999999999999996 1.9999999999999989 2.9999999999999991 326 4.9999999999999982
leaf_count=1950 1041 9 166 46 8 1 5 10 401 60 2 215 4 12 8 7 3 2 30 7 1 40 1897 9 31 16 13 1 44 2 2 12 1 6 5 44 108 2 2 7 175 4 1 81 1 3 12 13 1 977 11 30 2 80 5 9 7 1 21 2 3 326 5
internal_value=6.90259e-10 -0.027303 0.113163 0.127294 0.0551919 0.0203691 -0.213326 -0.0923555 -0.047236 -0.00374648 -0.144101 -0.000737507 0.00807519 -0.0468522 -0.00880437 0.0789549 -0.388432 -0.0462676 -0.0797575 -0.304655 0.0446848 -0.0385549 -0.0578863 -0.0471374 -0.182156 -0.38072 0.0112681 -0.61505 -0.106495 -0.122468 -0.200055 -0.187131 -0.106695 -0.289319 -0.142964 -0.0133539 -0.0990098 -0.0131927 -0.552972 -0.209681 0.0548923 0.0958792 0.00309559 0.0354235 -0.527082 -0.132214 -0.266183 -0.055562 -0.0149918 -0.018067 -0.282285 0.0188799 -0.0146425 -0.0365945 -0.211498 -0.137118 -0.252406 -0.20678 -0.149036 -0.00993227 -0.34138 0.119975 -0.179946
internal_weight=8000 6445 1555 1289 248 202 26 21 3491 2954 62 2892 2428 464 1961 467 11 3482 45 15 266 100 2466 1955 58 27 235 8 229 217 114 112 68 23 17 45 511 110 18 20 176 422 87 82 5 60 28 16 32 1016 13 31 1003 103 23 21 16 24 22 979 11 335 9
internal_count=8000 6445 1555 1289 248 202 26 21 3491 2954 62 2892 2428 464 1961 467 11 3482 45 15 266 100 2466 1955 58 27 235 8 229 217 114 112 68 23 17 45 511 110 18 20 176 422 87 82 5 60 28 16 32 1016 13 31 1003 103 23 21 16 24 22 979 11 335 9
is_linear=0
shrinkage=0.01


Tree=2
num_leaves=64
num_cat=0
split_feature=3 3 0 6 2 6 0 1 2 9 5 7 7 0 5 4 1 6 0 1 6 6 5 8 2 6 7 8 5 2 3 5 5 2 0 1 0 8 6 3 9 1 1 4 2 8 4 1 1 3 8 6 1 6 8 2 3 1 9 9 1 3 7
split_gain=242256 29660.3 14747.8 15646.5 12943.2 15972.9 15662.3 14040 12413.8 12227.1 15993.3 11519.1 28470.9 15764.4 15625.1 12294.4 11732.8 11181.9 11153.7 16187.7 10881.9 12896.3 10812.3 19793.7 17890 14295.2 10920.1 12041.9 11048.2 10459.6 10394.6 10354.2 14170.3 10450.3 10976.1 11360.8 13680.8 14366.8 10606 10351.9 10167.9 10102.8 9668.05 9555.88 9522.33 9363.32 12178.3 9913.71 9246.97 14614.6 14669.7 9387.52 9234.97 16231.9 11408.5 11154.6 9010.11 9210.95 8951.18 8929.9 31342.9 9157.37 8896.61
threshold=250.00272247775027 248.51045980723026 19.500000000000004 4.04178111179115 17.345440976083285 4.5505693097095312 13.500000000000002 -0.0021808433365173995 15.063348585539098 0.040759357057888558 239.38664418208114 20.030472423733119 2.7559636324694599 11.500000000000002 240.89951211443361 264.99263633426239 0.016633460907470806 2.1579179878002068 5.5000000000000009 -0.0067932781159375987 0.61188866585761603 3.658079735097973 234.46116533861283 0.99325834376069611 21.278894488841814 1.9764511079912663 -8.7235709384027 0.82839531277535217 233.88339063138997 29.180995638472989 244.27932683316337 230.40438809823084 235.09881431996249 29.728370470404897 15.500000000000002 -0.026707578722856947 20.500000000000004 0.93908757361522555 -6.9009632558150775 248.92405852186172 0.048823076410160003 0.045120232187482158 0.0047732055720616012 131.64960940646839 22.605221052087185 0.77760595677389011 172.97752171316355 0.049598222425489703 0.023077043038252702 140.991491377318 0.71784776276753215 6.8053199177685215 0.0032439248441154503 2.4663896396173546 0.81291295238640704 15.885846025125129 249.67073177293943 -0.024382939946126347 -0.035578362011489846 -0.013071806059029299 -0.031369127466959794 182.58377447692217 70.363056449139023
decision_type=2 2 2 2 2 2 2 2 2 2 2 2 2 2 2 2 2 2 2 2 2 2 2 2 2 2 2 2 2 2 2 2 2 2 2 2 2 2 2 2 2 2 2 2 2 2 2 2 2 2 2 2 2 2 2 2 2 2 2 2 2 2 2
left_child=1 9 3 -2 -5 6 7 -6 -3 11 -11 12 14 29 -1 48 -16 22 19 30 -4 52 23 25 -25 26 27 28 45 -13 -17 -15 33 34 -33 36 37 -36 -37 -24 -28 -26 -31 -7 -27 47 -47 -10 -14 51 -51 -50 55 54 -54 -22 57 -19 -57 60 -34 -62 -58
right_child=2 8 20 4 5 43 -8 -9 17 10 -12 13 15 31 16 18 -18 56 -20 -21 21 -23 39 24 41 44 40 -29 -30 42 -32 32 59 -35 35 38 -38 -39 -40 -41 -42 -43 -44 -45 -46 46 -48 -49 49 50 -52 -53 53 -55 -56 58 62 -59 -60 -61 61 -63 -64
leaf_value=-0.0065962461478530597 0.14302607647790019 -0.4176759804619683 0.093880981077630835 0.20602822153464609 -0.33796602079644777 -0.92041717529296874 -0.71418976974487314 0.17975541973114012 -0.093613481026300252 -0.11333639844258625 -1.0223576354980468 0.031503325950267703 0.1187754532094322 0.18051291823387147 -0.58454277753829964 -0.74514156069074344 0.14877300262451168 0.34479301452636718 0.032364095528920493 0.0495826176234654 -1.0543616485595704 0.10091467285156251 -0.75900932312011715 -0.044527536233266184 -0.63784337615966791 -0.69970965067545576 -0.049109153785234831 -0.063656556915272694 -0.50405566107143052 -0.046247963355137742 0.3447930145263669 -0.30832736400379374 0.24913886547088621 -0.91453754425048828 0.04611640095710752 -1.0315679168701173 -0.69695117950439456 -0.59189638519287113 0.0099239103326743301 -0.039076867088340295 -1.0581854248046876 0.11878996849060058 -0.50720848492213655 0.05991343373571123 -0.13631737073262531 0.20301580190658569 -0.3868581072347505 -1.0962769317626953 -0.73846158027648923 -1.1687073516845703 0.049930666217833396 0.3447930145263669 -0.61086645126342631 -0.54154032895962401 0.073268970709580647 -0.91203094482421554 -0.0098329498289310893 -0.39296269156716085 0.049715115388234463 -0.00084060737821790908 0.15013885498046889 -0.88347590764363593 -0.20471224824587506
leaf_weight=1950 1041 8.9999999999999982 166 46 11.000000000000005 0.999999999999999 4.9999999999999991 9.9999999999999982 71 60 1.9999999999999989 215 335 11.999999999999998 7.9999999999999982 7 3 1.9999999999999989 30 6.9999999999999991 0.999999999999999 40 1.9999999999999989 12.000000000000002 15.000000000000002 5.9999999999999982 704 136 10.999999999999998 13.000000000000002 0.99999999999999989 44 6 1.9999999999999989 12.000000000000005 0.999999999999999 5.9999999999999991 4.9999999999999991 44 1467 0.999999999999999 1.9999999999999989 6.9999999999999991 175 6 3.9999999999999991 28 0.999999999999999 3.9999999999999991 0.999999999999999 81 0.99999999999999989 3.0000000000000062 11.999999999999998 12.999999999999998 1.0000000000000024 979 10.999999999999998 30 90 0.99999999999999811 6 24
leaf_count=1950 1041 9 166 46 11 1 5 10 71 60 2 215 335 12 8 7 3 2 30 7 1 40 2 12 15 6 704 136 11 13 1 44 6 2 12 1 6 5 44 1467 1 2 7 175 6 4 28 1 4 1 81 1 3 12 13 1 979 11 30 90 1 6 24
internal_value=8.55562e-10 -0.02703 0.112031 0.126021 0.05464 0.0201654 -0.211193 -0.091432 -0.0467636 -0.00370902 -0.14266 -0.000730131 0.00799444 -0.0463837 -0.00871632 0.0781653 -0.384548 -0.0458049 -0.0789599 -0.301608 0.044238 -0.0381694 -0.0573074 -0.0827245 -0.340152 -0.0750123 -0.0707068 -0.127349 -0.202673 0.0111555 -0.6089 -0.10543 -0.121243 -0.198054 -0.18526 -0.105628 -0.286426 -0.141534 -0.0132204 -0.040057 -0.0505405 -0.548828 -0.207584 0.0543434 -0.418014 -0.170796 -0.313124 -0.107539 0.0949204 0.00306464 0.0350692 -0.521811 -0.130892 -0.263521 -0.0550064 -0.0148418 -0.0178864 -0.279462 0.018691 -0.0362285 -0.281222 -0.735817 -0.0144961
internal_weight=8000 6445 1555 1289 248 202 26 21 3491 2954 62 2892 2428 464 1961 467 11 3482 45 15 266 100 2466 997 29 968 956 251 115 235 8 229 217 114 112 68 23 17 45 1469 705 17 20 176 12 104 32 72 422 87 82 5 60 28 16 32 1016 13 31 103 13 7 1003
internal_count=8000 6445 1555 1289 248 202 26 21 3491 2954 62 2892 2428 464 1961 467 11 3482 45 15 266 100 2466 997 29 968 956 251 115 235 8 229 217 114 112 68 23 17 45 1469 705 17 20 176 12 104 32 72 422 87 82 5 60 28 16 32 1016 13 31 103 13 7 1003
is_linear=0
shrinkage=0.01


Tree=3
num_leaves=64
num_cat=0
split_feature=3 3 0 6 2 6 0 1 2 9 5 7 7 0 5 4 1 6 0 1 6 6 5 8 2 7 5 2 2 3 5 5 2 0 1 4 1 3 1 1 5 6 1 0 9 4 1 3 8 6 1 6 8 2 8 6 1 1 1 1 5 4 9
split_gain=237435 29070.1 14454.4 15335.1 12685.7 15655 15350.6 13760.6 12166.8 11983.8 15675 11289.8 27904.4 15450.7 15314.1 12049.8 11499.3 10959.3 10931.8 15865.6 10665.4 12639.6 10597.1 19399.8 17534 14081.7 12888.3 10507.6 10251.4 10187.8 10148.2 13888.3 10242.3 10757.7 11154.1 10196.7 11780.3 10145.9 9901.79 9846.76 11161.5 9760.84 9475.66 9391.61 9366.3 9365.71 9062.96 14323.8 14377.8 9200.71 9051.19 15908.9 11181.5 10932.6 9012.65 11897.3 9672.49 22693.6 12579.8 12713.8 10556.3 9607.05 8870.31
threshold=250.00272247775027 248.51045980723026 19.500000000000004 4.04178111179115 17.345440976083285 4.5505693097095312 13.500000000000002 -0.0021808433365173995 15.063348585539098 0.040759357057888558 239.38664418208114 20.030472423733119 2.7559636324694599 11.500000000000002 240.89951211443361 264.99263633426239 0.016633460907470806 2.1579179878002068 5.5000000000000009 -0.0067932781159375987 0.61188866585761603 3.658079735097973 234.46116533861283 0.99325834376069611 21.278894488841814 -37.927506482474939 231.21923881270669 16.183892323052429 29.180995638472989 244.27932683316337 230.40438809823084 235.09881431996249 29.728370470404897 15.500000000000002 -0.038488187172562242 249.98082630846713 -0.039667062126422195 248.92405852186172 0.045120232187482158 0.049598222425489703 230.85988500810365 -6.9009632558150775 0.0047732055720616012 20.500000000000004 0.048823076410160003 131.64960940646839 0.023077043038252702 140.991491377318 0.71784776276753215 6.8053199177685215 0.0032439248441154503 2.4663896396173546 0.81291295238640704 15.885846025125129 0.72416511588723231 0.88895131464749999 -0.046504359281880549 -0.03331314721477089 -0.013212030911711699 -0.012786778307627799 230.96457376266906 174.93643523953548 0.0097869031931417522
decision_type=2 2 2 2 2 2 2 2 2 2 2 2 2 2 2 2 2 2 2 2 2 2 2 2 2 2 2 2 2 2 2 2 2 2 2 2 2 2 2 2 2 2 2 2 2 2 2 2 2 2 2 2 2 2 2 2 2 2 2 2 2 2 2
left_child=1 9 3 -2 -5 6 7 -6 -3 11 -11 12 14 28 -1 46 -16 22 19 29 -4 50 23 25 -25 26 27 -10 -13 -17 -15 32 33 -32 35 36 -35 -24 -26 40 -27 -36 -30 -41 54 -7 -14 49 -49 -48 53 52 -52 -22 -42 56 -56 60 -59 -60 -58 -61 -57
right_child=2 8 20 4 5 45 -8 -9 17 10 -12 13 15 30 16 18 -18 -19 -20 -21 21 -23 37 24 38 39 -28 -29 42 -31 31 -33 -34 34 41 -37 -38 -39 -40 43 44 -43 -44 -45 -46 -47 47 48 -50 -51 51 -53 -54 -55 55 62 57 58 59 61 -62 -63 -64
leaf_value=-0.0065302852040300006 0.14159580164554098 -0.41349923875596789 0.092942161603146292 0.20396794184394507 -0.33458635503595502 -0.91121299743652351 -0.70704788208007818 0.17795789146423338 -0.78041928427559992 -0.11220303153991699 -1.0121340942382813 0.031188289309656895 0.11758769954829963 0.17870778958002728 -0.57869736194610599 -0.73769010271344859 0.14728527069091793 -0.017707511090387509 0.032040449500083924 0.04908679144723075 -1.0438180541992188 0.099905530929565431 -0.75141921997070316 -0.044082262516021722 -0.6314649594624836 0.010529885059449731 -0.142561042090257 -0.18020134162902829 -0.045785480829385598 0.34134506225585909 -0.30524409598924901 -0.035866236651985392 -0.90539218902587892 0.15073633670806882 -1.0212522888183595 -0.67051059722900375 -0.75734912872314486 -0.038686098309859744 0.11760207176208497 -1.0337549209594727 0.037389459434102795 -0.02417682268001415 -0.50213639940534327 0.15314931869506818 -1.0476036071777344 0.059314297512599402 -0.73107700347900395 -1.1570203399658203 0.049431362358140357 0.34134506225585909 -0.60475781122843286 -0.53612491309642796 0.072536284373356741 0.018504147221965174 0.095938795506954194 -0.22349585008621214 -1.262077865600586 0.031883402762292817 -1.2121406555175782 0.061380438426645791 -0.22798671922126373 -0.10081752917366828 0.14684777787753514
leaf_weight=1950 1041 8.9999999999999982 166 46 11.000000000000005 0.999999999999999 4.9999999999999991 9.9999999999999982 6.9999999999999982 60 1.9999999999999989 215 335 11.999999999999998 7.9999999999999982 7 3 1016 30 6.9999999999999991 0.999999999999999 40 1.9999999999999989 12.000000000000002 15.000000000000002 164 30 5 13.000000000000002 0.99999999999999989 44 103 1.9999999999999989 5 0.999999999999999 6 1.999999999999998 1467 1.9999999999999989 1.9999999999999989 61 54 6.9999999999999991 1.0000000000000002 0.999999999999999 175 3.9999999999999991 0.999999999999999 81 0.99999999999999989 3.0000000000000062 11.999999999999998 12.999999999999998 31 32 85 0.999999999999999 119 0.999999999999999 41 77 334 6.9999999999999991
leaf_count=1950 1041 9 166 46 11 1 5 10 7 60 2 215 335 12 8 7 3 1016 30 7 1 40 2 12 15 164 30 5 13 1 44 103 2 5 1 6 2 1467 2 2 61 54 7 1 1 175 4 1 81 1 3 12 13 31 32 85 1 119 1 41 77 334 7
internal_value=-2.10739e-09 -0.0267597 0.110911 0.124761 0.0540936 0.0199638 -0.209081 -0.0905177 -0.046296 -0.00367193 -0.141233 -0.00072283 0.00791449 -0.0459199 -0.00862916 0.0773837 -0.380702 -0.0453468 -0.0781703 -0.298592 0.0437956 -0.0377877 -0.0567343 -0.0818972 -0.33675 -0.0742622 -0.253352 -0.530328 0.0110439 -0.602811 -0.104376 -0.120031 -0.196074 -0.183407 -0.104572 -0.368006 -0.108717 -0.0396565 -0.543339 -0.0661393 -0.0642802 -0.0423055 -0.205508 -0.63812 -0.0804447 0.0537999 0.0939712 0.00303399 0.0347185 -0.516593 -0.129583 -0.260886 -0.0544564 -0.0146934 -0.0791688 -0.0893697 -0.0732587 -0.0827077 -0.0577262 -0.0860867 -0.241244 -0.0830839 -0.195318
internal_weight=8000 6445 1555 1289 248 202 26 21 3491 2954 62 2892 2428 464 1961 467 11 3482 45 15 266 100 2466 997 29 968 42 12 235 8 229 217 114 112 68 13 7 1469 17 926 923 55 20 3 759 176 422 87 82 5 60 28 16 32 758 697 605 573 495 376 78 375 92
internal_count=8000 6445 1555 1289 248 202 26 21 3491 2954 62 2892 2428 464 1961 467 11 3482 45 15 266 100 2466 997 29 968 42 12 235 8 229 217 114 112 68 13 7 1469 17 926 923 55 20 3 759 176 422 87 82 5 60 28 16 32 758 697 605 573 495 376 78 375 92
is_linear=0
shrinkage=0.01


Tree=4
num_leaves=64
num_cat=0
split_feature=3 3 0 6 2 6 0 1 2 9 5 7 7 0 5 4 1 6 0 1 7 6 6 8 5 2 2 0 7 8 1 8 8 6 7 1 3 1 1 4 8 9 1 3 8 6 1 6 8 2 0 7 3 1 9 7 2 1 9 2 9 1 5
split_gain=232710 28491.6 14166.7 15030 12433.2 15343.5 15045.1 13486.7 11924.7 11745.3 15363.1 11065.2 27349.1 15143.2 15009.4 11810 11270.5 10741.3 10714.2 15549.8 10483.6 10453.1 12388.1 10246.2 18841.8 15125.7 10047.4 10036.7 11627.3 9989.73 10093.6 15742.4 21020.4 18919.3 12687.9 11066.8 9985.04 9608.03 9287.09 9179.33 9148.87 11509.8 8882.6 14038.8 14091.6 9017.62 8871.07 15592.3 10959 10715.1 8840.11 12198.1 8830.81 9027.65 8773.05 8719.56 8627.69 8788.54 8495.58 8402.07 8605.31 10018.5 15245.6
threshold=250.00272247775027 248.51045980723026 19.500000000000004 4.04178111179115 17.345440976083285 4.5505693097095312 13.500000000000002 -0.0021808433365173995 15.063348585539098 0.040759357057888558 239.38664418208114 20.030472423733119 2.7559636324694599 11.500000000000002 240.89951211443361 264.99263633426239 0.016633460907470806 2.1579179878002068 5.5000000000000009 -0.0067932781159375987 -11.310082622729546 0.61188866585761603 3.658079735097973 0.99203348879313191 234.46116533861283 21.278894488841814 29.180995638472989 18.500000000000004 -11.974633506297328 0.9324617901869473 0.010191723971565701 0.82064686535306641 0.8416062487890007 -1.4959495315523754 21.658878688557618 0.0059264518026915505 244.27932683316337 0.045120232187482158 0.0047732055720616012 131.64960940646839 0.84903927706084092 -0.019339607404653496 0.023077043038252702 140.991491377318 0.71784776276753215 6.8053199177685215 0.0032439248441154503 2.4663896396173546 0.81291295238640704 15.885846025125129 20.500000000000004 38.846801969046993 249.67073177293943 -0.024382939946126347 -0.035578362011489846 70.363056449139023 19.213771499112159 -0.043474611047029398 0.048823076410160003 29.833556820623347 0.021480886070780452 -0.022666668587794595 236.23789590643415
decision_type=2 2 2 2 2 2 2 2 2 2 2 2 2 2 2 2 2 2 2 2 2 2 2 2 2 2 2 2 2 2 2 2 2 2 2 2 2 2 2 2 2 2 2 2 2 2 2 2 2 2 2 2 2 2 2 2 2 2 2 2 2 2 2
left_child=1 9 3 -2 -5 6 7 -6 -3 11 -11 12 14 26 -1 42 -16 20 19 36 27 -4 46 -22 25 -25 -13 -10 -29 30 34 -32 -33 -34 35 -15 -17 -27 -28 -7 41 50 -14 45 -45 -44 49 48 -48 -23 51 -36 53 -19 -51 58 -57 -58 -54 60 61 62 -31
right_child=2 8 21 4 5 39 -8 -9 17 10 -12 13 15 29 16 18 -18 52 -20 -21 23 22 -24 24 -26 37 38 28 -30 59 31 32 33 -35 40 -37 -38 -39 -40 -41 -42 -43 43 44 -46 -47 47 -49 -50 54 -52 -53 55 -55 -56 56 57 -59 -60 -61 -62 -63 -64
leaf_value=-0.0064649794061214499 0.14017985611438294 -0.40936423407660594 0.092012743260487029 0.20192826115566753 -0.33124049078334439 -0.90210083007812503 -0.69997737121582038 0.17617829895019532 -0.11970825463013161 -0.111081001440684 -1.002012710571289 0.030876411815022316 0.11641182323912187 -0.86269732157389334 -0.5729103899002076 -0.73031323024204797 0.14581241607666012 0.34152214050292967 0.031720046520233157 0.048595916203090124 -0.04162261658579379 -1.0333798980712892 0.098906465768814095 -0.034953321880764422 -0.0083434877472539099 -0.61872825801372511 -0.045327629492833053 0.0021121426588959166 -0.76738998413085935 -0.56009670551006596 0.0074743700027465818 -0.7578038311004639 -0.49344015641645939 0.045298961102962491 0.28606733322143563 0.35203453063964818 0.33793163299560519 0.11642604827880859 -0.49711503710065574 0.058721149301528934 0.14382214175330268 -0.0025139382734137069 -0.72376621246337891 -1.1454501342773438 0.048937049927534879 0.33793163299560519 -0.59871022542317565 -0.53076366225878391 0.071810918587904712 -0.90309562683105149 -0.82965758005777968 -0.61571233113606749 -0.0082247192736718891 -0.3888559722900391 0.049032926400502524 -0.8313249969482408 -1.0612390899658128 -0.10170591127304805 -0.66064233779907233 -1.1266165161132813 -0.84596687316894537 -0.069327159370436819 -0.0052608014643192296
leaf_weight=1950 1041 8.9999999999999982 166 46 11.000000000000005 0.999999999999999 4.9999999999999991 9.9999999999999982 401 60 1.9999999999999989 215 335 2.9999999999999991 7.9999999999999982 7 3 1.9999999999999989 30 6.9999999999999991 1897 0.999999999999999 40 9.0000000000000018 31 16.000000000000004 13.000000000000002 108 1.9999999999999989 13.000000000000002 29 7.9999999999999991 11.000000000000002 15.999999999999998 2.9999999999999982 0.99999999999999989 0.99999999999999989 1.9999999999999989 6.9999999999999991 175 36 59 3.9999999999999991 0.999999999999999 81 0.99999999999999989 3.0000000000000062 11.999999999999998 12.999999999999998 1.0000000000000024 3 3 977 10.999999999999998 30 2.0000000000000027 1.000000000000006 20.999999999999996 1.9999999999999989 0.999999999999999 1.9999999999999989 33 7.9999999999999991
leaf_count=1950 1041 9 166 46 11 1 5 10 401 60 2 215 335 3 8 7 3 2 30 7 1897 1 40 9 31 16 13 108 2 13 29 8 11 16 3 1 1 2 7 175 36 59 4 1 81 1 3 12 13 1 3 3 977 11 30 2 1 21 2 1 2 33 8
internal_value=8.40779e-10 -0.0264921 0.109802 0.123513 0.0535526 0.0197641 -0.20699 -0.0896125 -0.045833 -0.00363521 -0.139821 -0.0007156 0.00783535 -0.0454607 -0.00854286 0.0766098 -0.376895 -0.0448934 -0.0773886 -0.295606 -0.056167 0.0433576 -0.0374098 -0.0456256 -0.176552 -0.369681 0.0109335 -0.0964964 -0.0118788 -0.103332 -0.0653106 -0.164824 -0.307585 -0.174187 -0.00633973 -0.559014 -0.596783 -0.537044 -0.203453 0.0532619 0.014917 -0.0533269 0.0930315 0.00300365 0.0343714 -0.511427 -0.128287 -0.258277 -0.0539118 -0.0145465 -0.386434 -0.164822 -0.0175304 -0.27649 0.0183191 -0.014174 -0.202488 -0.145321 -0.00955754 -0.218065 -0.201841 -0.177984 -0.348731
internal_weight=8000 6445 1555 1289 248 202 26 21 3491 2954 62 2892 2428 464 1961 467 11 3482 45 15 2466 266 100 1955 58 27 235 511 110 229 172 64 35 27 108 4 8 18 20 176 104 68 422 87 82 5 60 28 16 32 9 6 1016 13 31 1003 24 22 979 57 56 54 21
internal_count=8000 6445 1555 1289 248 202 26 21 3491 2954 62 2892 2428 464 1961 467 11 3482 45 15 2466 266 100 1955 58 27 235 511 110 229 172 64 35 27 108 4 8 18 20 176 104 68 422 87 82 5 60 28 16 32 9 6 1016 13 31 1003 24 22 979 57 56 54 21
is_linear=0
shrinkage=0.01


Tree=5
num_leaves=64
num_cat=0
split_feature=3 3 0 6 2 6 0 1 2 9 5 7 7 0 5 4 1 6 0 1 5 8 2 6 7 8 5 6 6 3 5 5 2 2 0 1 0 8 6 3 9 1 2 8 4 1 1 4 6 9 1 3 8 6 1 6 8 2 4 6 3 1 9
split_gain=228079 27924.6 13884.8 14730.9 12185.8 15038.1 14745.7 13218.3 11687.4 11511.6 15057.4 10845 26804.8 14841.9 14710.7 11575 11046.2 10527.5 10501 15240.4 10315.6 18599.4 16865.3 13906.6 10459.8 11800.5 10811.8 10245.1 12141.6 9946.52 9868.17 13412.4 9847.49 9817.48 10401.6 10802.7 13188.1 13601.6 10098.2 9786.33 9770.14 9513.28 9309.14 9144.42 11845.8 9524.15 9102.28 8996.67 8739.65 12715.2 8705.84 13759.4 13811.2 8838.17 8694.54 15282 10740.9 10501.8 8692.14 10391.7 8655.07 8848 8598.47
threshold=250.00272247775027 248.51045980723026 19.500000000000004 4.04178111179115 17.345440976083285 4.5505693097095312 13.500000000000002 -0.0021808433365173995 15.063348585539098 0.040759357057888558 239.38664418208114 20.030472423733119 2.7559636324694599 11.500000000000002 240.89951211443361 264.99263633426239 0.016633460907470806 2.1579179878002068 5.5000000000000009 -0.0067932781159375987 234.46116533861283 0.99325834376069611 21.278894488841814 1.9764511079912663 -8.7235709384027 0.82839531277535217 233.88339063138997 0.61188866585761603 3.658079735097973 248.92405852186172 230.40438809823084 235.09881431996249 29.180995638472989 29.728370470404897 15.500000000000002 -0.026707578722856947 20.500000000000004 0.93908757361522555 -6.9009632558150775 244.27932683316337 0.048823076410160003 0.045120232187482158 22.605221052087185 0.77760595677389011 172.97752171316355 0.049598222425489703 0.0047732055720616012 131.64960940646839 -2.2818256505836878 -1.0000000180025095e-35 0.023077043038252702 140.991491377318 0.71784776276753215 6.8053199177685215 0.0032439248441154503 2.4663896396173546 0.81291295238640704 15.885846025125129 237.61815885847219 -5.8804879564223809 249.67073177293943 -0.024382939946126347 -0.035578362011489846
decision_type=2 2 2 2 2 2 2 2 2 2 2 2 2 2 2 2 2 2 2 2 2 2 2 2 2 2 2 2 2 2 2 2 2 2 2 2 2 2 2 2 2 2 2 2 2 2 2 2 2 2 2 2 2 2 2 2 2 2 2 2 2 2 2
left_child=1 9 3 -2 -5 6 7 -6 -3 11 -11 12 14 32 -1 50 -16 20 19 39 21 23 -23 24 25 26 43 -4 54 -22 -15 33 -13 34 -32 36 37 -36 -37 -17 -26 -24 -25 45 -45 -10 -34 -7 49 -33 -14 53 -53 -52 57 56 -56 -29 -51 -60 61 -19 -59
right_child=2 8 27 4 5 47 -8 -9 17 10 -12 13 15 30 16 18 -18 60 -20 -21 29 22 41 42 40 -27 -28 28 -30 -31 31 48 46 -35 35 38 -38 -39 -40 -41 -42 -43 -44 44 -46 -47 -48 -49 -50 58 51 52 -54 -55 55 -57 -58 62 59 -61 -62 -63 -64
leaf_value=-0.0064003322834387802 0.13877806361207307 -0.40527058919270836 0.091092623472213752 0.19990898495135098 -0.32792806961319643 -0.89307983398437507 -0.69297761535644531 0.17441651821136475 -0.091013676322681814 -0.10997019068400066 -0.99199264526367192 0.030567638308502908 0.11524771410048898 0.17685234506924946 -0.56718126296997073 -0.72301007815769736 0.14435429573059078 0.33810691833496093 0.031402849713961282 0.048109961918422151 -0.74348884582519537 -0.042938763300577783 -0.61896300220489486 -0.68978787422180188 -0.04756957395002246 -0.061094088646418909 -0.49684973554177719 -1.0230460357666016 0.097917395591735845 -0.037794996530691134 -0.2998676885528998 -0.96871158599853346 -0.044874352858616746 -0.88691619873046879 0.045999056696891756 -1.0061053466796874 -0.68191143035888668 -0.57479032135009767 0.010148134295913307 0.33455230712890599 -1.0367113494873048 0.11526178359985352 -0.13273782094319661 0.20121407032012939 -0.38055097477776662 -1.0737796020507813 -0.49214388029915945 0.058133948871067598 0.014364913549274206 0.22967952537536604 -0.71652857780456547 -1.133995590209961 0.048447671083756437 0.33455230712890599 -0.59272312800089377 -0.52545603950818387 0.071092810264000536 -0.894064712524411 -0.023234613206651464 -0.53696232931954546 -0.014032288228021423 -0.38496741901744491 0.048542591015497849
leaf_weight=1950 1041 8.9999999999999982 166 46 11.000000000000005 0.999999999999999 4.9999999999999991 9.9999999999999982 71 60 1.9999999999999989 215 335 11.999999999999998 7.9999999999999982 7 3 1.9999999999999989 30 6.9999999999999991 1.9999999999999989 12.000000000000002 15.000000000000002 5.9999999999999982 704 136 10.999999999999998 0.999999999999999 40 1467 44 2.0000000000000027 13.000000000000002 1.9999999999999989 12.000000000000005 0.999999999999999 5.9999999999999991 4.9999999999999991 44 0.99999999999999989 0.999999999999999 1.9999999999999989 6 3.9999999999999991 28 0.999999999999999 6.9999999999999991 175 80 5.0000000000000027 3.9999999999999991 0.999999999999999 81 0.99999999999999989 3.0000000000000062 11.999999999999998 12.999999999999998 1.0000000000000024 9.0000000000000018 6.9999999999999956 1003 10.999999999999998 30
leaf_count=1950 1041 9 166 46 11 1 5 10 71 60 2 215 335 12 8 7 3 2 30 7 2 12 15 6 704 136 11 1 40 1467 44 2 13 2 12 1 6 5 44 1 1 2 6 4 28 1 7 175 80 5 4 1 81 1 3 12 13 1 9 7 1003 11 30
internal_value=8.85014e-10 -0.0262272 0.108704 0.122278 0.0530171 0.0195665 -0.20492 -0.0887164 -0.0453747 -0.00359886 -0.138423 -0.000708445 0.007757 -0.0450061 -0.00845744 0.0758437 -0.373126 -0.0444444 -0.0766147 -0.29265 -0.0556053 -0.0804318 -0.329972 -0.0729559 -0.0687094 -0.124145 -0.19871 0.0429241 -0.0370357 -0.0387558 -0.102299 -0.117736 0.0108241 -0.192465 -0.180064 -0.102544 -0.278845 -0.136586 -0.0124353 -0.590815 -0.0489726 -0.532584 -0.411263 -0.167176 -0.30783 -0.104663 -0.201419 0.0527293 -0.035026 -0.206821 0.0921012 0.00297361 0.0340276 -0.506312 -0.127004 -0.255694 -0.0533727 -0.014401 -0.13426 -0.24799 -0.0173551 -0.273725 0.0181359
internal_weight=8000 6445 1555 1289 248 202 26 21 3491 2954 62 2892 2428 464 1961 467 11 3482 45 15 2466 997 29 968 956 251 115 266 100 1469 229 217 235 114 112 68 23 17 45 8 705 17 12 104 32 72 20 176 103 23 422 87 82 5 60 28 16 32 21 16 1016 13 31
internal_count=8000 6445 1555 1289 248 202 26 21 3491 2954 62 2892 2428 464 1961 467 11 3482 45 15 2466 997 29 968 956 251 115 266 100 1469 229 217 235 114 112 68 23 17 45 8 705 17 12 104 32 72 20 176 103 23 422 87 82 5 60 28 16 32 21 16 1016 13 31
is_linear=0
shrinkage=0.01


Tree=6
num_leaves=64
num_cat=0
split_feature=3 3 0 6 2 6 0 1 2 9 5 7 7 5 0 4 1 6 0 1 7 6 6 8 5 2 0 7 8 1 8 8 6 7 1 3 2 1 8 9 1 4 0 7 1 6 8 2 3 1 7 2 1 9 6 9 8 2 9 1 5 8 0
split_gain=223540 27368.9 13608.5 14437.7 11943.3 14738.9 14452.3 12955.3 11454.8 11283.6 14929.4 11090.6 26913.2 14427.4 14142.6 11531.3 10826.4 10318 10292 14937.1 10143.7 10041.2 11899.9 9834.16 18144.2 14550.6 9794.07 11395.5 9677.45 9831.69 15255.9 20577.9 18309.7 12244.5 10727 9591.59 9522.6 9236.94 8934.25 11232.3 8921.14 8817.63 8629.31 11958.2 8521.52 14977.9 10527.1 10292.8 8482.84 8671.93 8546.05 8456 8613.65 8427.36 8360.22 8326.52 8214.12 8103.81 8395.91 9657.76 14676.2 9148.77 10080.6
threshold=250.00272247775027 248.51045980723026 19.500000000000004 4.04178111179115 17.345440976083285 4.5505693097095312 13.500000000000002 -0.0021808433365173995 15.063348585539098 0.039914669062879708 239.38664418208114 20.030472423733119 2.7559636324694599 240.89951211443361 11.500000000000002 264.99263633426239 0.016633460907470806 2.1579179878002068 5.5000000000000009 -0.0067932781159375987 -11.310082622729546 0.61188866585761603 3.658079735097973 0.99203348879313191 234.46116533861283 21.278894488841814 18.500000000000004 -11.974633506297328 0.9324617901869473 0.010191723971565701 0.82064686535306641 0.8416062487890007 -1.4959495315523754 21.658878688557618 0.0059264518026915505 244.27932683316337 29.180995638472989 0.045120232187482158 0.84903927706084092 -0.019339607404653496 0.0047732055720616012 131.64960940646839 20.500000000000004 38.846801969046993 0.0032439248441154503 2.4663896396173546 0.81291295238640704 15.885846025125129 249.67073177293943 -0.024382939946126347 70.363056449139023 19.213771499112159 -0.043474611047029398 -0.035578362011489846 4.489612997572527 0.048823076410160003 0.75850701573762869 29.833556820623347 0.021480886070780452 -0.022666668587794595 236.23789590643415 0.99636231362264849 15.500000000000002
decision_type=2 2 2 2 2 2 2 2 2 2 2 2 2 2 2 2 2 2 2 2 2 2 2 2 2 2 2 2 2 2 2 2 2 2 2 2 2 2 2 2 2 2 2 2 2 2 2 2 2 2 2 2 2 2 2 2 2 2 2 2 2 2 2
left_child=1 9 3 -2 -5 6 7 54 56 11 -11 12 13 -1 36 -14 -15 20 19 35 26 -4 44 -22 25 -25 -10 -28 29 33 -31 -32 -33 34 -16 -17 -13 -27 39 42 -38 -7 43 -35 47 46 -46 -23 49 -19 55 -52 -53 -49 -6 -50 -3 58 59 60 -30 62 -61
right_child=2 8 21 4 5 41 -8 -9 17 10 -12 14 15 16 28 18 -18 48 -20 -21 23 22 -24 24 -26 37 27 -29 57 30 31 32 -34 38 -36 -37 40 -39 -40 -41 -42 -43 -44 -45 45 -47 -48 53 50 -51 51 52 -54 -55 -56 -57 -58 -59 -60 61 -62 -63 -64
leaf_value=-0.0062153131664105582 0.13739027909297535 -0.96640625000000047 0.090181688759700354 0.19790989435237386 -0.49347043320536571 -0.88414901733398443 -0.68604783630371091 0.17267236137390135 -0.11764903996650715 -0.10509374921972102 -0.98207267761230466 0.028768268946175263 0.092567810123861546 -0.56150943756103522 -0.84756871541341139 -0.71577999659946989 0.14291075706481932 0.33472587585449221 0.031088816682497661 0.047628860473632816 -0.040758512592886743 -1.0128156280517577 0.096938232421875006 -0.034164111879136816 -0.0078820991516113277 -0.60670849174261077 0.0027198534514065141 -0.75907205581665038 -0.54972888212937565 0.0075481712407079243 -0.74805919647216801 -0.48468544006347641 0.045302048623561859 0.28411043802897146 0.34837051391601537 0.33120677947998017 -0.044425609295184784 0.11410917282104492 0.14261356168323094 -0.0020125873689934358 -0.48722244671412873 0.057552617672511505 -0.81918373107910125 -0.60875689188639304 -0.58679586410522322 -0.52020147323608401 0.070381875038146968 -0.88512405395507499 -0.0080021493528858057 -0.38111775138161397 -0.82287139892577987 -1.0504863739013597 -0.10054853166852681 0.04805716872215271 0.12554224967956543 -0.65389557838439938 -0.23973551068987164 -1.106481170654297 -0.83450851440429685 -0.30766586846775468 -0.0053518377244472504 -0.72354646682739254 0.089610056877136232
leaf_weight=1946 1041 1.999999999999998 166 46 8.0000000000000053 0.999999999999999 4.9999999999999991 9.9999999999999982 401 66 1.9999999999999989 214 421 7.9999999999999982 2.9999999999999991 7 3 1.9999999999999989 30 6.9999999999999991 1897 0.999999999999999 40 9.0000000000000018 31 16.000000000000004 108 1.9999999999999989 13.000000000000002 29 7.9999999999999991 11.000000000000002 15.999999999999998 2.9999999999999982 0.99999999999999989 0.99999999999999989 13.000000000000002 1.9999999999999989 36 59 6.9999999999999991 175 3 3 3.0000000000000062 11.999999999999998 12.999999999999998 1.0000000000000024 977 10.999999999999998 2.0000000000000027 1.000000000000006 20.999999999999996 30 2.9999999999999991 1.9999999999999989 7 0.999999999999999 1.9999999999999989 9.0000000000000018 7.9999999999999991 1.9999999999999989 22
leaf_count=1946 1041 2 166 46 8 1 5 10 401 66 2 214 421 8 3 7 3 2 30 7 1897 1 40 9 31 16 108 2 13 29 8 11 16 3 1 1 13 2 36 59 7 175 3 3 3 12 13 1 977 11 2 1 21 30 3 2 7 1 2 9 8 2 22
internal_value=9.88622e-10 -0.0259649 0.107617 0.121055 0.0524869 0.0193708 -0.202871 -0.0878292 -0.0449209 -0.00356287 -0.130887 -0.000562848 0.0080064 -0.00825669 -0.045408 0.0763044 -0.369395 -0.044 -0.0758486 -0.289723 -0.0550493 0.0424948 -0.0366654 -0.0446802 -0.172947 -0.362466 -0.0947195 -0.0111309 -0.101276 -0.0638533 -0.162067 -0.302605 -0.170619 -0.0056526 -0.548584 -0.584907 0.00926632 -0.526618 0.0152294 -0.0522093 -0.199405 0.052202 -0.381277 -0.162323 -0.125734 -0.253137 -0.052839 -0.014257 -0.0171816 -0.270988 -0.013892 -0.200323 -0.143728 0.0179545 -0.324649 -0.00932165 -0.401218 -0.214201 -0.198267 -0.174703 -0.342347 -0.0680201 -0.0257281
internal_weight=8000 6445 1555 1289 248 202 26 21 3491 2954 68 2886 2423 1957 463 466 11 3482 45 15 2466 266 100 1955 58 27 511 110 229 172 64 35 27 108 4 8 234 18 104 68 20 176 9 6 60 28 16 32 1016 13 1003 24 22 31 11 979 9 57 56 54 21 33 31
internal_count=8000 6445 1555 1289 248 202 26 21 3491 2954 68 2886 2423 1957 463 466 11 3482 45 15 2466 266 100 1955 58 27 511 110 229 172 64 35 27 108 4 8 234 18 104 68 20 176 9 6 60 28 16 32 1016 13 1003 24 22 31 11 979 9 57 56 54 21 33 31
is_linear=0
shrinkage=0.01


Tree=7
num_leaves=64
num_cat=0
split_feature=3 3 0 6 2 6 0 1 2 9 5 7 7 0 5 4 1 6 0 1 5 8 2 6 7 8 5 6 6 3 9 5 5 2 2 0 1 4 1 3 6 1 2 8 4 1 1 4 1 3 8 6 6 9 4 6 1 6 8 2 7 3 2
split_gain=219092 26824.3 13337.7 14150.4 11705.6 14445.6 14164.7 12697.5 11226.9 11064.1 14462.8 10413.3 25742.9 14262 14131.1 11117.6 10610.9 10112.7 10087.2 14639.9 10042 17831.4 16222.2 13631.2 10108.1 11560.5 10588.6 9841.42 11663.1 9750.99 9575.86 9568.57 12966.3 9461.22 9408.55 10007.6 10466.4 9741.04 11003.2 9400.71 9206.67 9139.96 9115.41 8964.58 11593.8 9330.22 8743.61 8642.16 8529.11 13486.8 13536.9 8662.29 8453.63 12258 8445.99 10068.8 8351.94 14679.8 10317.6 10088 8327.49 9212.87 10861.2
threshold=250.00272247775027 248.51045980723026 19.500000000000004 4.04178111179115 17.345440976083285 4.5505693097095312 13.500000000000002 -0.0021808433365173995 15.063348585539098 0.040759357057888558 239.38664418208114 20.030472423733119 2.7559636324694599 11.500000000000002 240.89951211443361 264.99263633426239 0.016633460907470806 2.1579179878002068 5.5000000000000009 -0.0067932781159375987 234.46116533861283 0.99325834376069611 21.278894488841814 1.9764511079912663 -8.7235709384027 0.82839531277535217 233.88339063138997 0.61188866585761603 3.658079735097973 248.92405852186172 0.048823076410160003 230.40438809823084 235.09881431996249 29.180995638472989 29.728370470404897 15.500000000000002 -0.038488187172562242 249.98082630846713 -0.039667062126422195 244.27932683316337 -6.9009632558150775 0.045120232187482158 22.605221052087185 0.77760595677389011 172.97752171316355 0.049598222425489703 0.0047732055720616012 131.64960940646839 0.023077043038252702 140.991491377318 0.71784776276753215 6.8053199177685215 -2.2818256505836878 -1.0000000180025095e-35 237.61815885847219 -5.8804879564223809 0.0032439248441154503 2.4663896396173546 0.81291295238640704 15.885846025125129 -1.535044629267736 249.67073177293943 25.898596175380909
decision_type=2 2 2 2 2 2 2 2 2 2 2 2 2 2 2 2 2 2 2 2 2 2 2 2 2 2 2 2 2 2 2 2 2 2 2 2 2 2 2 2 2 2 2 2 2 2 2 2 2 2 2 2 2 2 2 2 2 2 2 2 2 2 2
left_child=1 9 3 -2 -5 6 7 -6 -3 11 -11 12 14 33 -1 48 -16 20 19 39 21 23 -23 24 25 26 43 -4 56 -22 -26 -15 34 -13 35 -33 37 38 -37 -17 -38 -24 -25 45 -45 -10 -35 -7 -14 51 -51 -50 53 -34 -55 -56 59 58 -58 -29 -19 62 -62
right_child=2 8 27 4 5 47 -8 -9 17 10 -12 13 15 31 16 18 -18 60 -20 -21 29 22 41 42 30 -27 -28 28 -30 -31 -32 32 52 46 -36 36 40 -39 -40 -41 -42 -43 -44 44 -46 -47 -48 -49 49 50 -52 -53 -54 54 55 -57 57 -59 -60 -61 61 -63 -64
leaf_value=-0.0062721458098540708 0.13601637766137362 -0.3972057088216146 0.089279879403401582 0.19593079318170961 -0.32140230969949179 -0.87530754089355467 -0.67918734359741206 0.17094563865661619 -0.089155988030030692 -0.10781954749425252 -0.97225196838378913 0.029980514127154682 0.11316955389977613 0.17461790601412458 -0.55589433908462538 -0.70862218311854763 0.14148164749145506 0.017725212734256059 0.03077792807420095 0.047152570996965681 -0.7356463623046875 -0.041819880803426093 -0.60670629215240468 -0.68222610791524263 -0.046678440397266638 -0.059558652551735147 -0.49081417983228515 -1.0026874542236328 0.095968843698501588 -0.03692296657848395 -1.0259365844726562 -0.29431262037970807 -0.95116886138915846 -0.043981350018427907 -0.86877429962158204 0.14823232936859129 -0.99119743347167966 -0.65161508560180648 -0.72939170837402378 0.32789470672607396 -0.022839823155491441 0.11296807289123535 -0.13100285847981769 0.19977657556533815 -0.37576839225632802 -1.0618653106689453 -0.48235020092555453 0.056977070065907069 -0.71028896331787106 -1.1235813140869142 0.047061922031420247 0.33028110504150365 0.014434796623303554 0.22689211654663069 -0.022729576958550341 -0.52841223852975061 -0.58092793146769073 -0.51499946912129724 0.069678059357863212 0.017775002294971098 -0.67117814636230477 -0.035547620346065331 -0.01205139923095703
leaf_weight=1950 1041 8.9999999999999982 166 46 11.000000000000005 0.999999999999999 4.9999999999999991 9.9999999999999982 71 60 1.9999999999999989 215 335 11.999999999999998 7.9999999999999982 7 3 411 30 6.9999999999999991 1.9999999999999989 12.000000000000002 15.000000000000002 5.9999999999999982 704 136 10.999999999999998 0.999999999999999 40 1467 0.999999999999999 44 2.0000000000000027 13.000000000000002 1.9999999999999989 5 0.999999999999999 6 1.999999999999998 0.99999999999999989 54 1.9999999999999989 6 3.9999999999999991 28 0.999999999999999 6.9999999999999991 175 3.9999999999999991 0.999999999999999 81 0.99999999999999989 80 5.0000000000000027 9.0000000000000018 6.9999999999999956 3.0000000000000062 11.999999999999998 12.999999999999998 31 4.9999999999999982 595 5
leaf_count=1950 1041 9 166 46 11 1 5 10 71 60 2 215 335 12 8 7 3 411 30 7 2 12 15 6 704 136 11 1 40 1467 1 44 2 13 2 5 1 6 2 1 54 2 6 4 28 1 7 175 4 1 81 1 80 5 9 7 3 12 13 31 5 595 5
internal_value=4.26442e-10 -0.0257052 0.10654 0.119845 0.0519621 0.0191771 -0.200843 -0.0869509 -0.0444717 -0.00352724 -0.135704 -0.000693562 0.00760169 -0.0441006 -0.00828832 0.0743261 -0.365701 -0.04356 -0.0750901 -0.286826 -0.0544988 -0.0789937 -0.323327 -0.0716738 -0.0674695 -0.121965 -0.195768 0.0420699 -0.0362987 -0.0378743 -0.0480675 -0.100263 -0.115464 0.0106281 -0.18894 -0.1768 -0.100763 -0.355947 -0.102517 -0.579058 -0.0404463 -0.522039 -0.406614 -0.164561 -0.303825 -0.102666 -0.19741 0.05168 0.0902591 0.00204092 0.0327858 -0.502175 -0.0341412 -0.203101 -0.131857 -0.243966 -0.124477 -0.250606 -0.0523106 -0.0141144 -0.0170098 -0.0406066 -0.341615
internal_weight=8000 6445 1555 1289 248 202 26 21 3491 2954 62 2892 2428 464 1961 467 11 3482 45 15 2466 997 29 968 956 251 115 266 100 1469 705 229 217 235 114 112 68 13 7 8 55 17 12 104 32 72 20 176 422 87 82 5 103 23 21 16 60 28 16 32 1016 605 10
internal_count=8000 6445 1555 1289 248 202 26 21 3491 2954 62 2892 2428 464 1961 467 11 3482 45 15 2466 997 29 968 956 251 115 266 100 1469 705 229 217 235 114 112 68 13 7 8 55 17 12 104 32 72 20 176 422 87 82 5 103 23 21 16 60 28 16 32 1016 605 10
is_linear=0
shrinkage=0.01


Tree=8
num_leaves=64
num_cat=0
split_feature=3 3 0 6 2 6 5 2 9 5 7 7 5 0 4 8 1 6 0 1 5 8 2 7 5 2 5 1 6 6 3 5 8 1 8 8 6 7 1 3 2 1 1 1 1 9 1 6 5 8 9 8 9 6 1 0 7 4 6 6 2 7 4
split_gain=214732 26290.5 13072.3 13868.8 11472.7 14158.1 13951.2 11003.4 10850.4 14338.9 10657.7 25859.2 13859 13581.8 11078.6 10500.5 10399.8 9911.44 9886.5 14348.5 9842.12 17476.5 15899.4 13363.1 12580.6 10286.7 9647.5 11251.7 9645.57 11526.5 9556.95 9540.23 9403.28 9574.53 14788.9 20145.7 17725.2 11812.1 10394.4 9213.64 9146.14 8958.08 8940.34 15247.5 15666 14164.6 12282.3 11213.1 11092.7 9514.91 8948.44 8726.73 10960.6 8636.6 8569.61 8510.09 11661.4 8470.18 8406.62 13349.8 9257.77 10605.8 8405.69
threshold=250.00272247775027 248.51045980723026 19.500000000000004 4.04178111179115 17.345440976083285 4.5505693097095312 232.17163957845807 15.063348585539098 0.039914669062879708 239.38664418208114 20.030472423733119 2.7559636324694599 240.89951211443361 11.500000000000002 264.99263633426239 0.78032145260915542 0.016633460907470806 2.1579179878002068 5.5000000000000009 -0.0067932781159375987 234.46116533861283 0.99325834376069611 21.278894488841814 -37.927506482474939 231.21923881270669 16.183892323052429 230.85988500810365 0.049598222425489703 0.61188866585761603 0.97913727647969473 248.92405852186172 235.9350475035906 0.9324617901869473 0.010191723971565701 0.82064686535306641 0.8416062487890007 -1.4959495315523754 21.658878688557618 0.0059264518026915505 244.27932683316337 29.180995638472989 0.045120232187482158 -0.046504359281880549 -0.03331314721477089 -0.013212030911711699 -0.0098620296781371988 -0.012786778307627799 0.9348600226315672 230.96457376266906 0.97585819774653115 0.048823076410160003 0.84903927706084092 -0.019339607404653496 1.9764511079912663 0.0047732055720616012 20.500000000000004 38.846801969046993 131.64960940646839 1.3559885329152292 1.3132100912267752 26.48918788335553 -1.0000000180025095e-35 206.68180840828708
decision_type=2 2 2 2 2 2 2 2 2 2 2 2 2 2 2 2 2 2 2 2 2 2 2 2 2 2 2 2 2 2 2 2 2 2 2 2 2 2 2 2 2 2 2 2 2 2 2 2 2 2 2 2 2 2 2 2 2 2 2 2 2 2 2
left_child=1 8 3 -2 -5 6 -6 -3 10 -10 11 12 -1 40 -13 -8 -14 20 19 39 21 23 -23 24 25 -9 27 -25 -4 -30 -22 -17 33 37 -35 -36 -37 38 -15 -16 -12 -24 -28 48 -45 49 -47 50 -44 -46 -48 52 55 -26 -42 56 -39 -7 59 60 61 -49 -27
right_child=2 7 28 4 5 57 15 17 9 -11 13 14 16 32 18 31 -18 -19 -20 -21 30 22 41 26 53 62 42 -29 29 -31 -32 -33 -34 34 35 36 -38 51 -40 -41 54 -43 43 44 45 46 47 58 -50 -51 -52 -53 -54 -55 -56 -57 -58 -59 -60 -61 -62 -63 -64
leaf_value=-0.0060904387468213687 0.13465621099483463 -0.39323365105523006 0.088387068352067319 0.19397148588429328 0.34441621780395482 -0.86655448913574218 -0.0085977113246917692 -0.76651518685477127 -0.10307050415963838 -0.96252944946289065 0.028180787050835439 0.090738512063642307 -0.55033540725708019 -0.83251012166341143 -0.70153598512922 -0.87550338745117184 0.14006683349609372 -0.016839662933443477 0.030470149079958597 0.046681044442313059 -0.72828987121582034 -0.041401678721110009 -0.6006392415364582 0.012723139233705475 -0.1044499465103807 -0.67480791091918924 0.075742444197336833 -1.0512466430664062 -0.40001706987619401 -0.0042764699977377186 -0.036553734672175188 -0.29765565991401671 -0.21057438179883256 0.0077063831789740203 -0.73841454029083253 -0.47608319369229385 0.045376771092414857 0.28215415000915534 0.34474246978759737 0.32461578369140598 -0.04354153596437893 0.11183839797973633 -1.2476908111572267 0.019154615709736089 -0.97042180379231768 -1.1982529449462891 -0.068554157969846194 -0.066343162536621078 -0.18922040588855743 0.15592378616332994 -1.0156772613525391 0.14146874533759224 -0.0014924519597473791 -1.04967041015625 -0.47752672059195383 -0.81101200103759741 -0.59956433614095039 0.05640730466161456 -0.13228651106357575 -0.90686706542968754 0.15529884815216063 -0.68994445800781223 0.16213541666666662
leaf_weight=1946 1041 8.9999999999999982 166 46 4.0000000000000027 0.999999999999999 8.0000000000000018 6.9999999999999982 66 1.9999999999999989 214 421 7.9999999999999982 2.9999999999999991 7 3.9999999999999991 3 1016 30 6.9999999999999991 1.9999999999999989 12.000000000000002 15.000000000000002 164 29.000000000000004 1.9999999999999998 36 0.999999999999999 7.9999999999999991 92 1467 9.9999999999999982 57 29 7.9999999999999991 11.000000000000002 15.999999999999998 2.9999999999999982 0.99999999999999989 0.99999999999999989 13.000000000000002 1.9999999999999989 0.999999999999999 157 2.9999999999999991 0.999999999999999 407 5 100 0.99999999999999989 0.999999999999999 36 59 0.999999999999999 6.9999999999999991 3 3 175 35 3.9999999999999991 3.9999999999999991 6.0000000000000018 3
leaf_count=1946 1041 9 166 46 4 1 8 7 66 2 214 421 8 3 7 4 3 1016 30 7 2 12 15 164 29 2 36 1 8 92 1467 10 57 29 8 11 16 3 1 1 13 2 1 157 3 1 407 5 100 1 1 36 59 1 7 3 3 175 35 4 4 6 3
internal_value=-1.66154e-10 -0.0254482 0.105475 0.118646 0.0514424 0.0189853 -0.198834 -0.044027 -0.00349197 -0.128349 -0.000550089 0.00785026 -0.0080912 -0.0445113 0.0747975 -0.297607 -0.362044 -0.0431244 -0.0743392 -0.283958 -0.0539538 -0.0782038 -0.320094 -0.070957 -0.245417 -0.519068 -0.0630441 0.00627484 0.0416492 -0.0359357 -0.0374955 -0.462755 -0.0992607 -0.0623718 -0.159292 -0.297663 -0.16707 -0.00493735 -0.538197 -0.573267 0.00906821 -0.516818 -0.0780739 -0.0857117 -0.0672616 -0.0963137 -0.0911947 -0.0887985 -0.1997 -0.688835 -0.0708755 0.0155726 -0.0510783 -0.135957 -0.195436 -0.376141 -0.158705 0.0511632 -0.224216 -0.393561 -0.256679 -0.406489 -0.172642
internal_weight=8000 6445 1555 1289 248 202 26 3491 2954 68 2886 2423 1957 463 466 22 11 3482 45 15 2466 997 29 968 42 12 926 165 266 100 1469 14 229 172 64 35 27 108 4 8 234 17 761 725 624 467 463 462 101 4 408 104 68 30 20 9 6 176 54 19 15 11 5
internal_count=8000 6445 1555 1289 248 202 26 3491 2954 68 2886 2423 1957 463 466 22 11 3482 45 15 2466 997 29 968 42 12 926 165 266 100 1469 14 229 172 64 35 27 108 4 8 234 17 761 725 624 467 463 462 101 4 408 104 68 30 20 9 6 176 54 19 15 11 5
is_linear=0
shrinkage=0.01


Tree=9
num_leaves=64
num_cat=0
split_feature=3 3 0 6 2 6 0 1 2 4 2 3 7 7 0 5 6 7 8 9 1 8 8 6 0 7 6 6 8 5 2 1 3 4 3 9 1 2 4 6 5 6 4 1 6 8 2 9 1 7 3 2 6 8 2 1 0 6 2 2 4 4 9
split_gain=210458 25767.3 12812.1 13592.8 11244.4 13876.4 13723.7 12276.2 10784.5 10668.2 18380.5 12965.8 12730.2 27157.2 12997.1 10762.6 9714.2 9759.72 9669.76 10607.3 10316.4 15672 20108 17494.3 9518.12 11180.2 9453.62 11375.8 9248.76 17168.4 13735.8 9193.82 13030.1 10048.9 12165 8774.72 8710.38 8663.61 9992.97 8595.92 8508.17 8489.91 8301.63 8199.33 14434.4 10090 9819.91 8269.09 8168.38 8161.77 9029.54 10645.1 8117.49 8050.65 8027.13 9101.64 8558.85 7858.9 7642.25 17080.8 10930 7633.48 8583.82
threshold=250.00272247775027 248.51045980723026 19.500000000000004 4.04178111179115 17.345440976083285 4.5505693097095312 13.500000000000002 -0.0021808433365173995 15.063348585539098 269.90902049121343 29.663648840203681 190.15503694323482 19.613602911835663 2.7559636324694599 12.500000000000002 240.89951211443361 2.1579179878002068 -11.310082622729546 0.9324617901869473 0.021480886070780452 0.010191723971565701 0.82064686535306641 0.8416062487890007 -2.1873463055223223 18.500000000000004 -11.974633506297328 0.61188866585761603 3.658079735097973 0.99203348879313191 234.46116533861283 21.278894488841814 0.023077043038252702 140.991491377318 225.14463964887833 205.50247727146919 0.043096203087117653 0.045120232187482158 24.265186151319416 177.99371140654026 7.1346123724099355 234.34867491646676 6.8053199177685215 131.64960940646839 0.0032439248441154503 2.4663896396173546 0.81291295238640704 15.885846025125129 -0.035578362011489846 0.024182582583558154 -1.535044629267736 249.67073177293943 25.898596175380909 4.489612997572527 0.75850701573762869 29.833556820623347 -0.010811513562686998 15.500000000000002 0.66023267062211077 19.394887505124679 19.07213536380819 240.26026639465968 223.07523854842441 -1.0000000180025095e-35
decision_type=2 2 2 2 2 2 2 2 2 2 2 2 2 2 2 2 2 2 2 2 2 2 2 2 2 2 2 2 2 2 2 2 2 2 2 2 2 2 2 2 2 2 2 2 2 2 2 2 2 2 2 2 2 2 2 2 2 2 2 2 2 2 2
left_child=1 9 3 -2 -5 6 7 52 53 12 35 -12 13 15 -14 -1 17 24 20 54 39 -22 -23 -24 -10 -26 -4 43 -19 30 -30 -15 41 34 -34 -11 61 40 -39 -16 -36 -33 -7 46 45 -45 -28 -48 -35 -18 51 -51 -6 -3 55 -20 -57 -49 59 60 -44 -32 -63
right_child=2 8 26 4 5 42 -8 -9 16 10 11 -13 14 31 18 -17 49 28 19 -21 21 22 23 -25 25 -27 27 -29 29 -31 36 32 33 48 37 -37 -38 38 -40 -41 -42 -43 58 44 -46 -47 47 57 -50 50 -52 -53 -54 -55 -56 56 -58 -59 -60 -61 -62 62 -64
leaf_value=-0.0015706165765938251 0.13330965670983341 -0.9488377380371098 0.087503199735319767 0.19203178364297618 -0.48162317961454348 -0.85788894653320313 -0.667685661315918 0.16884122467041018 -0.11493059641851154 -0.03126371908541193 -0.81600622177124027 -0.16686066508293151 0.0039549343972592743 0.11062143898920385 0.023454763926565647 -0.34834162182278106 0.017716360840484172 -0.039440163303290351 -0.37768308835370207 -0.81819831848144531 0.0068713438034057614 -0.80160363333565809 -0.55929354190826364 0.02691322905676706 0.0037954991862729744 -0.7507639312744141 -0.9886604309082031 0.095051934480667108 -0.033009426328870974 -0.0070685171311901463 -0.13456372578938772 -0.7040934371948242 0.13049599582950269 -0.33177528336644174 -0.35192162513732889 -0.45233815002441402 0.11072001457214356 -1.0976810455322266 -0.31621998680962454 -0.52229337533315023 0.30031171798706047 0.32607089996337862 -0.38613559746742193 -0.57375675201415877 -0.50980670293172203 0.069632885456085203 -0.87640777587890317 -0.55762863159179588 0.13655817773607043 -0.6642979583740235 -0.035023744361741202 -0.011762477874755857 0.12833716789881389 -0.2294337681361607 -1.0846228790283203 -0.34593359019075087 0.07330630600452423 0.091226266537393852 0.085901789644668852 -0.56666470527648927 0.13934063149125953 0.19596382141113247 -0.76835673332214371
leaf_weight=1618 1041 1.999999999999998 166 46 8.0000000000000053 0.999999999999999 4.9999999999999991 9.9999999999999982 401 485 4.9999999999999991 7.9999999999999991 222 334 76 8.9999999999999982 411 1897 13.999999999999995 2.9999999999999991 25 7.0000000000000027 8.0000000000000053 13.999999999999995 108 1.9999999999999989 0.999999999999999 40 9.0000000000000018 31 3.0000000000000062 3.9999999999999991 12.000000000000002 3.9999999999999991 4.0000000000000018 4.9999999999999991 1.9999999999999989 1.9999999999999989 8.9999999999999982 2.9999999999999991 4 0.99999999999999989 5.0000000000000062 3.0000000000000062 11.999999999999998 12.999999999999998 1.0000000000000024 2.0000000000000027 54 4.9999999999999982 595 5 2.9999999999999991 7 0.999999999999999 7.0000000000000062 15.999999999999998 28 145 5.9999999999999991 19 1.0000000000000007 11.999999999999996
leaf_count=1618 1041 2 166 46 8 1 5 10 401 485 5 8 222 334 76 9 411 1897 14 3 25 7 8 14 108 2 1 40 9 31 3 4 12 4 4 5 2 2 9 3 4 1 5 3 12 13 1 2 54 5 595 5 3 7 1 7 16 28 145 6 19 1 12
internal_value=1.42226e-09 -0.0251937 0.10442 0.11746 0.050928 0.0187955 -0.196846 -0.084741 -0.0435867 -0.00345705 -0.0454066 -0.416532 0.00515194 0.0151563 -0.0467645 -0.00348883 -0.0426932 -0.0534143 -0.111476 -0.245742 -0.0700851 -0.176611 -0.334786 -0.186253 -0.0923264 -0.00992376 0.0412327 -0.0355764 -0.0432434 -0.167634 -0.351987 0.0860338 -0.00133077 0.0265754 -0.118769 -0.0355604 -0.511476 -0.276199 -0.458304 0.00273015 -0.025805 -0.498061 0.0506516 -0.122662 -0.247633 -0.0510027 -0.0133122 0.0181507 0.104259 -0.0166713 -0.0400321 -0.33803 -0.31527 -0.389301 -0.200548 -0.176654 -0.0542884 0.0479693 0.0558432 -0.0894398 0.0298664 -0.589251 -0.694178
internal_weight=8000 6445 1555 1289 248 202 26 21 3491 2954 503 13 2451 2055 396 1627 3482 2466 174 41 133 54 29 22 511 110 266 100 1955 58 27 428 94 89 31 490 18 19 11 79 8 5 176 60 28 16 32 31 58 1016 605 10 11 9 38 37 23 30 175 30 24 16 13
internal_count=8000 6445 1555 1289 248 202 26 21 3491 2954 503 13 2451 2055 396 1627 3482 2466 174 41 133 54 29 22 511 110 266 100 1955 58 27 428 94 89 31 490 18 19 11 79 8 5 176 60 28 16 32 31 58 1016 605 10 11 9 38 37 23 30 175 30 24 16 13
is_linear=0
shrinkage=0.01


Tree=10
num_leaves=64
num_cat=0
split_feature=3 3 0 6 2 6 5 2 9 5 8 7 7 0 5 4 1 0 1 8 6 9 5 2 5 5 6 6 5 2 3 2 0 1 4 1 6 7 7 0 7 6 3 2 1 9 1 3 1 3 8 6 2 6 4 5 8 2 1 6 8 2 9
split_gain=206270 25254.5 12557.2 13322.3 11020.6 13600.2 13493.3 10569.9 10546 13772.4 10174.5 9803.97 24207.4 13508.5 13358.2 10543.4 10173.1 9695.65 14079.3 9558.14 10560.4 9888.55 9877.21 21509.8 9305.52 12522.3 9265.5 11149.5 9250 9049.6 9008.68 8902.01 9532.33 10166.8 9498.86 10599.1 8845.42 10337.6 9761.78 9172.32 10957.7 8842.67 8822.6 10433.2 8417.38 8228.24 29072 8422.96 8183.83 12960.4 13009.5 8320.96 8183.74 12087.9 8136.43 8130.31 8116.81 8797.71 8036.16 14147.1 9889.24 9624.5 8104.54
threshold=250.00272247775027 248.51045980723026 19.500000000000004 4.04178111179115 17.345440976083285 4.5505693097095312 232.17163957845807 15.063348585539098 0.040759357057888558 239.38664418208114 0.78032145260915542 20.030472423733119 2.7559636324694599 11.500000000000002 240.89951211443361 264.99263633426239 0.016633460907470806 5.5000000000000009 -0.0067932781159375987 0.99325834376069611 -7.0239034946682954 0.031819648746131156 233.04385521564384 20.924812996552109 230.40438809823084 235.09881431996249 0.61188866585761603 3.658079735097973 235.9350475035906 29.180995638472989 244.27932683316337 29.728370470404897 15.500000000000002 -0.038488187172562242 249.98082630846713 -0.039667062126422195 2.1579179878002068 -11.310082622729546 -1.9674811320657575 18.500000000000004 -11.974633506297328 -6.9009632558150775 249.67073177293943 25.898596175380909 0.0047732055720616012 -0.013071806059029299 -0.031369127466959794 182.58377447692217 0.023077043038252702 140.991491377318 0.71784776276753215 6.8053199177685215 18.527847202300737 0.88895131464749999 131.64960940646839 232.85606640419118 0.7058038269555047 24.652753479822227 0.0032439248441154503 2.4663896396173546 0.81291295238640704 15.885846025125129 -0.035578362011489846
decision_type=2 2 2 2 2 2 2 2 2 2 2 2 2 2 2 2 2 2 2 2 2 2 2 2 2 2 2 2 2 2 2 2 2 2 2 2 2 2 2 2 2 2 2 2 2 2 2 2 2 2 2 2 2 2 2 2 2 2 2 2 2 2 2
left_child=1 8 3 -2 -5 6 -6 -3 11 -10 -8 12 14 29 -1 48 -16 18 30 36 -21 22 23 -22 -15 31 -4 58 -12 -13 -17 32 52 34 35 -34 37 39 -38 -9 -41 -35 43 -40 -31 46 -27 -48 56 51 -51 -50 -26 -54 -7 -25 57 -14 61 60 -60 -28 -63
right_child=2 7 26 4 5 54 10 19 9 -11 28 13 15 24 16 17 -18 -19 -20 20 21 -23 -24 55 25 45 27 -29 -30 44 -32 -33 33 41 -36 -37 38 -39 42 40 -42 -43 -44 -45 -46 -47 47 -49 49 50 -52 -53 53 -55 -56 -57 -58 -59 59 -61 -62 62 -64
leaf_value=-0.0060556055032194422 0.131976544238219 -0.38540829870435928 0.086628175715366032 0.19011146524678108 0.33938491821289035 -0.84931007385253909 -0.0075283300876617396 -0.11318957914400589 -0.10525639947255452 -0.94880527496337896 -0.86100181579589841 0.029416238263595934 0.093450992584228537 0.17364367167154948 -0.54174499988555913 -0.69441065890448428 0.14109264691670731 0.030383494536081954 0.046526876177106588 -0.59478636169433596 0.10085609149932857 -0.68301546732584639 -0.013266142879923185 -0.40657269367804894 0.055704822540283201 0.24310962518056228 -0.97877380371093747 0.094101399421691906 -0.29201160359382633 -0.042433652511009792 0.32026340484619115 -0.84591049194335943 0.14624446010589598 -0.9709317016601563 -0.64208631515502912 -0.71511119842529325 0.023896520372593041 -0.039447929427899417 -0.65765496826171888 0.0037575428270631367 -0.74325630187988279 -0.021909958353197135 -0.03510611301579443 -0.011644866943359374 -0.47254698140280588 0.0014643690850999619 0.14419454574584975 -0.84710708618164055 -0.69705249786376955 -1.1022760772705078 0.045332844693351672 0.32281021118164033 -0.23511439451149532 -0.64014528560638428 0.055284807423182897 -1.0914497756958008 0.11823339664131587 -0.53575236797332748 -0.56801916758219262 -0.50470863779385888 0.068936553001403805 -0.86764373779296566 0.047489569584528608
leaf_weight=1950 1041 8.9999999999999982 166 46 4.0000000000000027 0.999999999999999 8.0000000000000018 391 60 1.9999999999999989 3.9999999999999991 215 4.9999999999999982 11.999999999999998 7.9999999999999982 7 3 30 6.9999999999999991 4.9999999999999991 10.000000000000002 2.9999999999999991 48 12.999999999999998 5.9999999999999991 6 0.999999999999999 40 9.9999999999999982 13.000000000000002 0.99999999999999989 1.9999999999999989 5 0.999999999999999 6 1.999999999999998 396 1906 4.9999999999999982 108 1.9999999999999989 54 588 5 6.9999999999999991 90 0.99999999999999811 6 3.9999999999999991 0.999999999999999 81 0.99999999999999989 28 9.9999999999999982 175 1.9999999999999989 326 4 3.0000000000000062 11.999999999999998 12.999999999999998 1.0000000000000024 30
leaf_count=1950 1041 9 166 46 4 1 8 391 60 2 4 215 5 12 8 7 3 30 7 5 10 3 48 13 6 6 1 40 10 13 1 2 5 1 6 2 396 1906 5 108 2 54 588 5 7 90 1 6 4 1 81 1 28 10 175 2 326 4 3 12 13 1 30
internal_value=-4.87131e-10 -0.0249418 0.103376 0.116285 0.0504187 0.0186075 -0.194877 -0.0431509 -0.00342248 -0.132468 -0.292016 -0.000655946 0.00739295 -0.0427739 -0.00801587 0.0720968 -0.355517 -0.0734093 -0.280995 -0.0422662 -0.149624 -0.120337 -0.0972131 -0.258391 -0.0974328 -0.112423 0.0408204 -0.0352206 -0.45458 0.0104895 -0.567576 -0.18463 -0.172822 -0.0986116 -0.350117 -0.0998572 -0.0397093 -0.0500729 -0.0146136 -0.0904947 -0.00982453 -0.0391649 -0.0401152 -0.33465 -0.192973 -0.0325048 -0.267676 -0.705493 0.0876128 0.00119867 0.0313376 -0.49308 -0.28751 -0.341701 0.0501451 -0.49789 0.110055 -0.186195 -0.121435 -0.245157 -0.0504926 -0.0131791 0.0179691
internal_weight=8000 6445 1555 1289 248 202 26 3491 2954 62 22 2892 2428 464 1961 467 11 45 15 3482 81 76 73 25 229 217 266 100 14 235 8 114 112 68 13 7 3401 2407 994 501 110 55 598 10 20 103 13 7 422 87 82 5 44 38 176 15 335 9 60 28 16 32 31
internal_count=8000 6445 1555 1289 248 202 26 3491 2954 62 22 2892 2428 464 1961 467 11 45 15 3482 81 76 73 25 229 217 266 100 14 235 8 114 112 68 13 7 3401 2407 994 501 110 55 598 10 20 103 13 7 422 87 82 5 44 38 176 15 335 9 60 28 16 32 31
is_linear=0
shrinkage=0.01


Tree=11
num_leaves=64
num_cat=0
split_feature=3 3 0 6 2 6 0 1 2 4 2 3 7 7 0 5 8 5 6 1 8 9 1 0 5 6 6 6 6 1 3 4 3 6 7 7 0 7 3 2 9 2 4 5 6 2 6 2 8 3 8 2 8 9 7 1 4 8 6 2 1 0 0
split_gain=202166 24752 12307.3 13057.2 10801.3 13329.6 13296.5 11868.8 10359.5 10356.5 18008.3 12718.4 12276 26052.9 12503.2 10315.6 9367.93 10390.9 16609.8 10182.9 9339.62 10197 10034.2 15328.6 13160.7 10472.5 9808.5 9081.12 11062.7 8817.49 12521.1 9796.92 11895.3 8669.39 10131.9 9567.52 8989.79 10739.6 8647.04 10225.6 8565.87 8459.36 9653.57 8338.85 8308.53 8199.64 8155.37 8028.05 9027.12 16549 16544.4 9959.04 8661.81 8550.43 8197.94 8008.72 7974.51 7890.45 7881.92 7743.52 8844.66 8278.71 7717.42
threshold=250.00272247775027 248.51045980723026 19.500000000000004 4.04178111179115 17.345440976083285 4.5505693097095312 13.500000000000002 -0.0021808433365173995 15.063348585539098 269.90902049121343 29.663648840203681 190.15503694323482 19.613602911835663 2.7559636324694599 12.500000000000002 240.89951211443361 0.99325834376069611 234.43484690172468 -6.0616162491560113 -0.036013180361103396 0.9324617901869473 0.021480886070780452 0.010191723971565701 18.500000000000004 238.97388490386018 -5.6421505208510849 -7.4121536969496438 0.61188866585761603 0.97913727647969473 0.023077043038252702 140.991491377318 225.14463964887833 205.50247727146919 2.1579179878002068 -11.310082622729546 -1.9674811320657575 18.500000000000004 -11.974633506297328 249.67073177293943 25.898596175380909 0.043096203087117653 24.265186151319416 177.99371140654026 234.34867491646676 7.1346123724099355 28.497426174568762 6.8053199177685215 16.861165592243704 0.89123921064737133 268.68077140089997 0.86285350274650929 29.784658062558872 0.71514643583537674 -0.035578362011489846 -14.824248380629529 0.024182582583558154 131.64960940646839 0.75850701573762869 4.489612997572527 29.833556820623347 -0.010811513562686998 15.500000000000002 18.500000000000004
decision_type=2 2 2 2 2 2 2 2 2 2 2 2 2 2 2 2 2 2 2 2 2 2 2 2 2 2 2 2 2 2 2 2 2 2 2 2 2 2 2 2 2 2 2 2 2 2 2 2 2 2 2 2 2 2 2 2 2 2 2 2 2 2 2
left_child=1 9 3 -2 -5 6 7 58 57 12 40 -12 13 15 -14 -1 33 18 -18 -20 22 59 44 24 26 -25 -24 -4 45 -15 46 32 -32 34 36 62 -10 -38 39 -37 -11 43 -43 -34 -16 -29 -31 -30 49 -49 52 -52 -51 -54 -50 -33 -7 -3 -6 60 -22 -62 -35
right_child=2 8 27 4 5 56 -8 -9 16 10 11 -13 14 29 20 -17 17 -19 19 -21 21 -23 23 25 -26 -27 -28 28 47 30 31 55 41 35 -36 38 37 -39 -40 -41 -42 42 -44 -45 -46 -47 -48 48 54 50 51 -53 53 -55 -56 -57 -58 -59 -60 -61 61 -63 -64
leaf_value=-0.0014658459740197597 0.13065677422489774 -0.93549530029296923 0.085761894547795689 0.18821034006450485 -0.4731755721569057 -0.84081695556640623 -0.65638169479370123 0.16675631618499759 -0.11205768550067301 -0.030729190581238148 -0.80771286010742194 -0.16479180812835695 0.003858475448848965 0.10841888286797943 0.023507868108388626 -0.34095815658569334 -0.8721544265747071 -0.033458810955286029 -0.88781162261962887 -0.15416422721317838 -0.37170324768338897 -0.80258603413899732 0.15910452524820945 -0.96122238159179352 0.22957388401031495 0.087399955034255988 -0.44477873527086703 -0.5763865073521931 0.24963522650978781 -0.6900819778442383 0.1291141869872808 -0.32891086369752887 -0.34847927093505837 -0.00011163693297569449 -0.039053449304884351 -0.65107843017578138 0.003719968561221052 -0.73582370758056637 -0.034755049965211324 -0.011528404235839841 -0.44676220703124997 -1.0814195632934571 -0.31334380891587998 0.29723174571990962 -0.51303972880045567 0.16296650648117059 0.3195820999145505 -0.84321339925130201 -0.27958443069458006 -0.39254166984558103 -0.74852369689941411 0.34467540740966768 -0.85896728515624998 0.079217786718817323 0.16123463295124196 0.134822926874514 0.054731953171321325 -0.2232853371756417 0.12786925236384072 -1.0653175354003905 -0.33973915645054376 0.072582471966743473 0.10564790219403385
leaf_weight=1618 1041 1.999999999999998 166 46 8.0000000000000053 0.999999999999999 4.9999999999999991 9.9999999999999982 391 485 4.9999999999999991 7.9999999999999991 222 334 76 8.9999999999999982 3.9999999999999991 40 1.9999999999999989 35 13.999999999999995 2.9999999999999991 3.0000000000000027 1.0000000000000024 3.9999999999999991 20 26 6 10.999999999999998 3.9999999999999991 12.000000000000002 3.9999999999999991 4.0000000000000018 307 1906 4.9999999999999982 108 1.9999999999999989 588 5 4.9999999999999991 1.9999999999999989 8.9999999999999982 4 2.9999999999999991 1.9999999999999998 0.99999999999999989 2.9999999999999991 4.9999999999999991 4.9999999999999991 4.9999999999999991 0.99999999999999989 0.999999999999999 34 27 54 175 7 2.9999999999999991 0.999999999999999 7.0000000000000062 15.999999999999998 89
leaf_count=1618 1041 2 166 46 8 1 5 10 391 485 5 8 222 334 76 9 4 40 2 35 14 3 3 1 4 20 26 6 11 4 12 4 4 307 1906 5 108 2 588 5 5 2 9 4 3 2 1 3 5 5 5 1 1 34 27 54 175 7 3 1 7 16 89
internal_value=-2.60997e-09 -0.0246923 0.102342 0.115122 0.0499145 0.0184214 -0.192929 -0.0825826 -0.0427194 -0.00338825 -0.0447204 -0.412069 0.00509403 0.0149183 -0.0458878 -0.0033438 -0.0418436 -0.148128 -0.26 -0.193821 -0.109357 -0.241312 -0.0686796 -0.173738 -0.308141 0.0374656 -0.382308 0.0404122 -0.0348684 0.0843397 -0.00121813 0.0261375 -0.117373 -0.0393122 -0.0495722 -0.0144674 -0.0895897 -0.00972628 -0.0397141 -0.331303 -0.0349744 -0.273049 -0.452994 -0.0256238 0.00313264 -0.391548 -0.488149 -0.00385276 -0.0382771 -0.123589 -0.0766568 -0.566324 -0.00320677 0.0524125 0.0923567 0.102841 0.0496436 -0.381554 -0.309254 -0.197 -0.173532 -0.0529067 0.0236576
internal_weight=8000 6445 1555 1289 248 202 26 21 3491 2954 503 13 2451 2055 396 1627 3482 81 41 37 174 41 133 54 33 21 29 266 100 428 94 89 31 3401 2407 994 501 110 598 10 490 19 11 8 79 8 5 92 81 49 46 6 40 35 32 58 176 9 11 38 37 23 396
internal_count=8000 6445 1555 1289 248 202 26 21 3491 2954 503 13 2451 2055 396 1627 3482 81 41 37 174 41 133 54 33 21 29 266 100 428 94 89 31 3401 2407 994 501 110 598 10 490 19 11 8 79 8 5 92 81 49 46 6 40 35 32 58 176 9 11 38 37 23 396
is_linear=0
shrinkage=0.01


Tree=12
num_leaves=64
num_cat=0
split_feature=3 3 0 6 2 6 5 9 5 2 8 7 7 5 0 4 1 0 1 8 5 6 1 5 5 5 6 6 3 2 2 0 1 0 8 6 6 7 7 0 7 3 2 1 6 9 4 6 2 2 6 1 2 8 3 8 2 8 9 7 4 8 5
split_gain=198142 24259.4 12062.4 12797.4 10586.4 13064.3 13050.4 10258.9 13537.6 10153.4 9858.7 9851.38 23824.6 12893.2 12665.4 10376.5 9951.6 9508.43 13814.9 9181.51 10184.1 16279.3 9980.25 9091.9 12162.6 8968.6 8900.4 10842.5 8808.45 8705.83 8555.75 9195.86 9973.6 12463.5 12358.8 9056.99 8496.87 9930.27 9377.13 8810.89 10525.9 8474.96 10022.1 8267.84 8146.56 11557.1 8198.47 9717.89 8036.47 7986.95 11727.2 7968.58 7868.3 8847.49 16219.7 16215.2 9760.85 8489.44 8380.28 8034.8 7815.82 7733.43 7731.59
threshold=250.00272247775027 248.51045980723026 19.500000000000004 4.04178111179115 17.345440976083285 4.5505693097095312 232.17163957845807 0.039914669062879708 239.38664418208114 15.063348585539098 0.78032145260915542 20.030472423733119 2.7559636324694599 240.89951211443361 11.500000000000002 264.99263633426239 0.016633460907470806 5.5000000000000009 -0.0067932781159375987 0.99325834376069611 234.43484690172468 -6.0616162491560113 -0.036013180361103396 230.40438809823084 235.09881431996249 235.9350475035906 0.61188866585761603 0.97913727647969473 244.27932683316337 29.180995638472989 29.728370470404897 15.500000000000002 -0.026707578722856947 20.500000000000004 0.93908757361522555 -6.9009632558150775 2.1579179878002068 -11.310082622729546 -1.9674811320657575 18.500000000000004 -11.974633506297328 249.67073177293943 25.898596175380909 0.0047732055720616012 -2.2818256505836878 -1.0000000180025095e-35 237.61815885847219 -5.8804879564223809 28.497426174568762 18.527847202300737 0.88895131464749999 0.040561673610364855 16.861165592243704 0.89123921064737133 268.68077140089997 0.86285350274650929 29.784658062558872 0.71514643583537674 -0.035578362011489846 -14.824248380629529 131.64960940646839 0.75850701573762869 231.44951165021288
decision_type=2 2 2 2 2 2 2 2 2 2 2 2 2 2 2 2 2 2 2 2 2 2 2 2 2 2 2 2 2 2 2 2 2 2 2 2 2 2 2 2 2 2 2 2 2 2 2 2 2 2 2 2 2 2 2 2 2 2 2 2 2 2 2
left_child=1 7 3 -2 -5 6 -6 11 -9 61 -8 12 13 -1 29 -14 -15 18 28 36 21 -21 -23 -16 30 -12 -4 48 -17 -13 31 49 33 34 -33 -34 37 39 -38 -11 -41 42 -40 -31 45 -26 -47 -48 -28 -25 -51 -45 -29 54 -54 57 -57 -56 -59 -55 -7 -3 -19
right_child=2 9 26 4 5 60 10 8 -10 19 25 14 15 16 23 17 -18 62 -20 20 -22 22 -24 24 44 -27 27 52 -30 43 -32 32 35 -35 -36 -37 38 -39 41 40 -42 -43 -44 51 -46 46 47 -49 -50 50 -52 -53 53 59 55 56 -58 58 -60 -61 -62 -63 -64
leaf_value=-0.0057891766193886012 0.12935020555050528 -0.92614036560058643 0.084904274466526083 0.18632824192876402 0.33442071914672822 -0.83240875244140622 -0.0064918434619903528 -0.10019856344569814 -0.93529701232910156 -0.11093711018181214 -0.84674404144287108 0.027627805627395058 0.087269846965216155 -0.5333057403564454 0.17231764833132426 -0.68735807350703637 0.14205721219380693 -0.83422134399413761 0.046368895939418245 -0.86343288421630859 -0.033124224066734313 -0.87893348693847662 -0.15262258386611938 0.056384611129760745 -0.92391380310058424 -0.28647526478767399 -0.57062265078226715 0.24713888688520955 0.31597658157348607 -0.041343800287980292 -0.82990093231201179 0.045794832905133538 -0.95161010742187502 -0.65838001887003583 -0.54595438003540042 0.010825833661312408 0.02342097701448383 -0.03866291418362796 -0.64456765747070321 0.0036827677198582225 -0.72846549987792975 -0.034407504166470093 -0.011413124084472655 -0.6810079345703125 0.016001146845519544 0.22508316040039045 -0.021476793289184563 -0.5182700811113633 0.16133685469627373 -0.23122972284044541 -0.63017226791381842 0.065852761268615695 -0.83478126525878904 -0.27678857135772705 -0.38861624336242678 -0.74103847503662112 0.34122867584228489 -0.85037757873535158 0.078425618269864258 0.15962229949456674 0.054184643077850342 -0.22105248587472093 0.060105068272557752
leaf_weight=1946 1041 1.999999999999998 166 46 4.0000000000000027 0.999999999999999 8.0000000000000018 66 1.9999999999999989 391 3.9999999999999991 214 421 7.9999999999999982 11.999999999999998 7 3 1.0000000000000024 6.9999999999999991 3.9999999999999991 40 1.9999999999999989 35 5.9999999999999991 2.0000000000000027 9.9999999999999982 6 10.999999999999998 0.99999999999999989 13.000000000000002 1.9999999999999989 12.000000000000005 0.999999999999999 5.9999999999999991 4.9999999999999991 44 396 1906 4.9999999999999982 108 1.9999999999999989 588 5 4.9999999999999991 80 5.0000000000000027 9.0000000000000018 6.9999999999999956 1.9999999999999998 28 9.9999999999999982 1.9999999999999998 2.9999999999999991 4.9999999999999991 4.9999999999999991 4.9999999999999991 0.99999999999999989 0.999999999999999 34 27 175 7 29
leaf_count=1946 1041 2 166 46 4 1 8 66 2 391 4 214 421 8 12 7 3 1 7 4 40 2 35 6 2 10 6 11 1 13 2 12 1 6 5 44 396 1906 5 108 2 588 5 5 80 5 9 7 2 28 10 2 3 5 5 5 1 1 34 27 175 7 29
internal_value=-1.76998e-09 -0.0244454 0.101319 0.113971 0.0494154 0.0182372 -0.190999 -0.00335437 -0.12476 -0.0422922 -0.28653 -0.0004938 0.00758253 -0.00771896 -0.0427594 0.0718422 -0.349116 -0.0724916 -0.278063 -0.0414251 -0.146646 -0.2574 -0.191883 -0.0956294 -0.110447 -0.446552 0.040008 -0.0345197 -0.561941 0.00898097 -0.181609 -0.170032 -0.0971439 -0.266544 -0.128249 -0.0105616 -0.0389191 -0.0490765 -0.0143227 -0.0886938 -0.00962902 -0.0393169 -0.32799 -0.19054 -0.0316845 -0.197548 -0.12837 -0.238824 -0.387633 -0.282678 -0.336215 -0.467619 -0.00381422 -0.0378943 -0.122353 -0.0758902 -0.560661 -0.00317469 0.0518884 0.0914331 0.0491472 -0.377739 0.0302942
internal_weight=8000 6445 1555 1289 248 202 26 2954 68 3491 22 2886 2423 1957 463 466 11 45 15 3482 81 41 37 229 217 14 266 100 8 234 114 112 68 23 17 45 3401 2407 994 501 110 598 10 20 103 23 21 16 8 44 38 7 92 81 49 46 6 40 35 32 176 9 30
internal_count=8000 6445 1555 1289 248 202 26 2954 68 3491 22 2886 2423 1957 463 466 11 45 15 3482 81 41 37 229 217 14 266 100 8 234 114 112 68 23 17 45 3401 2407 994 501 110 598 10 20 103 23 21 16 8 44 38 7 92 81 49 46 6 40 35 32 176 9 30
is_linear=0
shrinkage=0.01


Tree=13
num_leaves=64
num_cat=0
split_feature=3 3 0 6 2 6 0 1 4 2 3 7 7 0 2 5 8 6 9 5 2 8 9 1 0 5 6 6 4 6 6 1 3 4 3 9 6 7 7 0 7 3 2 2 4 6 5 6 2 1 5 5 4 6 8 0 9 2 2 4 2 1 0
split_gain=194199 23776.6 11822.3 12542.7 10375.7 12804.3 12882.5 11474.8 10062.2 17684.1 12448.1 11831 24994.5 12047.7 9951.32 9886.22 8998.8 9990.21 9697.75 9396.27 20876 8968.63 9813.62 9748.54 14953.7 12841.8 10078 9593.38 8798.65 8866.08 10954.6 8613.15 12282.1 9573.23 11663 8363.27 8327.79 9732.66 9190.53 8635.56 10316.4 8306.31 9822.68 8296.03 9471.83 8179.88 8172.91 7993.08 7876.54 7852.91 7849.62 7765.44 7660.28 7653.31 7579.53 7563.85 7501.14 7490.17 16740.9 10712.5 7476.54 8536.27 7967.2
threshold=250.00272247775027 248.51045980723026 19.500000000000004 4.04178111179115 17.345440976083285 4.5505693097095312 13.500000000000002 -0.0021808433365173995 269.90902049121343 29.663648840203681 190.15503694323482 19.613602911835663 2.7559636324694599 12.500000000000002 15.063348585539098 240.89951211443361 0.99325834376069611 -7.0239034946682954 0.031819648746131156 233.04385521564384 20.924812996552109 0.9324617901869473 0.021480886070780452 0.010191723971565701 18.500000000000004 238.97388490386018 -5.6421505208510849 -7.4121536969496438 130.34414057489079 0.61188866585761603 0.97913727647969473 0.023077043038252702 140.991491377318 225.14463964887833 205.50247727146919 0.043096203087117653 2.1579179878002068 -11.310082622729546 -1.9674811320657575 18.500000000000004 -11.974633506297328 249.67073177293943 25.898596175380909 24.265186151319416 177.99371140654026 7.1346123724099355 234.34867491646676 6.8053199177685215 28.497426174568762 0.024182582583558154 232.85606640419118 239.87479253628291 131.64960940646839 4.489612997572527 0.75850701573762869 18.500000000000004 0.048823076410160003 19.394887505124679 19.07213536380819 240.26026639465968 29.833556820623347 -0.010811513562686998 15.500000000000002
decision_type=2 2 2 2 2 2 2 2 2 2 2 2 2 2 2 2 2 2 2 2 2 2 2 2 2 2 2 2 2 2 2 2 2 2 2 2 2 2 2 2 2 2 2 2 2 2 2 2 2 2 2 2 2 2 2 2 2 2 2 2 2 2 2
left_child=1 8 3 -2 -5 6 7 53 11 35 -11 12 15 -13 54 -1 36 -18 19 20 -19 23 60 45 25 27 -26 -25 -4 51 48 -14 47 34 -34 -10 37 39 55 -16 -41 42 -40 46 -45 -15 -36 -33 -31 -35 -22 -30 -7 -6 -3 -38 -43 58 59 -54 61 -23 -63
right_child=2 14 28 4 5 52 -8 -9 9 10 -12 13 31 21 16 -17 17 18 -20 -21 50 22 -24 24 26 -27 -28 -29 29 30 -32 32 33 49 43 -37 38 -39 41 40 -42 56 -44 44 -46 -47 -48 -49 -50 -51 -52 -53 57 -55 -56 -57 -58 -59 -60 -61 -62 62 -64
leaf_value=-0.0013642113340376187 0.1280567120929571 -0.91687896728515672 -0.49889047304789225 0.18446495418963224 -0.46487833887338598 -0.824084701538086 -0.64527200317382805 0.16469090080261231 -0.030209026766806535 -0.79950673294067387 -0.16345265984535218 0.0038226173804686956 0.10647996166107541 0.023549267926106326 -0.10982773982617251 -0.33371633741590712 -0.57815863037109372 0.10291539859771724 -0.67391813913981125 -0.01191718560953935 -0.3972169700035682 -0.36477420261928023 -0.78724133809407548 0.15842742919921857 -0.94209403991698881 0.22740863323211671 0.086587281465530394 -0.43879694287593551 0.1074428656178136 -0.56491641044616692 0.0022102261899591804 -0.68405385971069332 0.12741901570310193 -0.32649444624781609 -0.34539850234985331 -0.44129260253906255 -0.00034472402998212879 -0.038276285720404715 -0.63812196350097661 0.0036459416813320582 -0.72118082046508791 -0.031976821335102511 -0.011298992156982419 -1.071478042602539 -0.31066647211710613 -0.50882796923319495 0.2938554143905639 0.31551357269287084 0.15972347617149346 0.13270614721156934 -1.0701676177978516 -0.19470376544528539 -0.383916258335113 0.12738565365473428 -0.21884196690150667 0.10435721469729135 -0.64543983459472654 0.08340075704969209 -0.56264007568359375 0.13630522872272291 -1.0463653564453126 -0.3329692079339705 0.071520795226097111
leaf_weight=1618 1041 1.999999999999998 2.9999999999999991 46 8.0000000000000053 0.999999999999999 4.9999999999999991 9.9999999999999982 485 4.9999999999999991 7.9999999999999991 222 334 76 391 8.9999999999999982 4.9999999999999991 10.000000000000002 2.9999999999999991 48 12.999999999999998 13.999999999999995 2.9999999999999991 3.0000000000000027 1.0000000000000024 3.9999999999999991 20 26 155 6 91 3.9999999999999991 12.000000000000002 3.9999999999999991 4.0000000000000018 4.9999999999999991 307 1906 4.9999999999999982 108 1.9999999999999989 586 5 1.9999999999999989 8.9999999999999982 2.9999999999999991 4 0.99999999999999989 1.9999999999999998 54 1.9999999999999989 8.9999999999999982 5.0000000000000062 2.9999999999999991 7 89 1.9999999999999989 145 5.9999999999999991 19 0.999999999999999 7.0000000000000062 15.999999999999998
leaf_count=1618 1041 2 3 46 8 1 5 10 485 5 8 222 334 76 391 9 5 10 3 48 13 14 3 3 1 4 20 26 155 6 91 4 12 4 4 5 307 1906 5 108 2 586 5 2 9 3 4 1 2 54 2 9 5 3 7 89 2 145 6 19 1 7 16
internal_value=-1.7717e-09 -0.024201 0.100306 0.112831 0.0489212 0.0180549 -0.189089 -0.0804743 -0.00332083 -0.0440616 -0.408089 0.00504009 0.0146846 -0.0450092 -0.0418692 -0.00320267 -0.0410109 -0.14518 -0.116694 -0.0937949 -0.251 -0.107312 -0.236619 -0.0674503 -0.171003 -0.303752 0.0376025 -0.377015 0.039608 0.0457505 -0.028979 0.0826815 -0.00187921 0.0252141 -0.116648 -0.0344038 -0.0385299 -0.0485857 -0.0141795 -0.0878069 -0.00953273 -0.0389237 -0.32471 -0.270796 -0.448996 0.00333241 -0.0257715 -0.48414 -0.383756 0.101037 -0.486944 0.0908616 0.0486557 -0.303352 -0.373961 0.0231868 -0.0340634 0.0536428 -0.0901874 0.0279258 -0.193149 -0.170089 -0.0515849
internal_weight=8000 6445 1555 1289 248 202 26 21 2954 503 13 2451 2055 396 3491 1627 3482 81 76 73 25 174 41 133 54 33 21 29 266 263 99 428 94 89 31 490 3401 2407 994 501 110 598 10 19 11 79 8 5 8 58 15 164 176 11 9 396 588 175 30 24 38 37 23
internal_count=8000 6445 1555 1289 248 202 26 21 2954 503 13 2451 2055 396 3491 1627 3482 81 76 73 25 174 41 133 54 33 21 29 266 263 99 428 94 89 31 490 3401 2407 994 501 110 598 10 19 11 79 8 5 8 58 15 164 176 11 9 396 588 175 30 24 38 37 23
is_linear=0
shrinkage=0.01


Tree=14
num_leaves=64
num_cat=0
split_feature=3 3 0 6 2 6 0 1 9 5 2 7 7 0 5 4 1 0 1 5 5 8 5 6 1 4 6 6 2 3 4 2 0 6 7 7 0 7 3 2 1 6 9 4 6 1 0 6 8 1 1 2 1 3 8 8 1 6 5 5 4 6 8
split_gain=190335 23303.5 11587.1 12293.1 10169.2 12549.5 12626.2 11246.4 9980.21 13002 9753.29 9045.89 22288.2 12608.3 12428.4 9873.41 9735.13 9324.77 13555.3 8883.6 11813.5 8819.72 9825.03 15795.4 9628.41 8623.56 8689.64 10736.6 8617.12 8612.81 8363.23 8523.94 8199.63 8162.06 9538.98 9007.63 8463.71 10111.1 8141.01 9627.21 8120.89 7976.7 11282.8 8040.63 9488.31 7951.52 13778.3 8705 8614.35 7851.69 7827.69 7719.8 7690.99 12210.4 12256.4 7884.12 8593.39 7834.02 7610.9 7576.12 7507.84 7501.01 7428.7
threshold=250.00272247775027 248.51045980723026 19.500000000000004 4.04178111179115 17.345440976083285 4.5505693097095312 13.500000000000002 -0.0021808433365173995 0.040759357057888558 239.38664418208114 15.063348585539098 20.030472423733119 2.7559636324694599 11.500000000000002 240.89951211443361 264.99263633426239 0.016633460907470806 5.5000000000000009 -0.0067932781159375987 230.40438809823084 235.09881431996249 0.99325834376069611 234.43484690172468 -6.0616162491560113 -0.036013180361103396 130.34414057489079 0.61188866585761603 0.97913727647969473 29.180995638472989 244.27932683316337 153.69226548589981 29.728370470404897 15.500000000000002 2.1579179878002068 -11.310082622729546 -1.9674811320657575 18.500000000000004 -11.974633506297328 249.67073177293943 25.898596175380909 0.0047732055720616012 -2.2818256505836878 -1.0000000180025095e-35 237.61815885847219 -5.8804879564223809 -0.026707578722856947 20.500000000000004 -6.9009632558150775 0.93908757361522555 0.021454419861377503 0.040561673610364855 28.497426174568762 0.023077043038252702 140.991491377318 0.71784776276753215 0.7058038269555047 -0.027698112099441344 6.8053199177685215 239.87479253628291 231.44951165021288 131.64960940646839 4.489612997572527 0.75850701573762869
decision_type=2 2 2 2 2 2 2 2 2 2 2 2 2 2 2 2 2 2 2 2 2 2 2 2 2 2 2 2 2 2 2 2 2 2 2 2 2 2 2 2 2 2 2 2 2 2 2 2 2 2 2 2 2 2 2 2 2 2 2 2 2 2 2
left_child=1 8 3 -2 -5 6 7 61 11 -10 62 12 14 28 -1 52 -16 18 29 -15 30 33 23 -23 -25 -4 58 51 -13 -17 -21 32 49 34 36 -35 -12 -38 39 -37 -30 42 -22 -44 -45 46 48 -47 -34 -32 -42 -28 55 57 -55 56 -14 -54 -27 -19 -7 -6 -3
right_child=2 10 25 4 5 60 -8 -9 9 -11 21 13 15 19 16 17 -18 59 -20 20 41 22 -24 24 -26 26 27 -29 40 -31 31 -33 45 35 -36 38 37 -39 -40 -41 50 -43 43 44 -46 47 -48 -49 -50 -51 -52 -53 53 54 -56 -57 -58 -59 -60 -61 -62 -63 -64
leaf_value=-0.0057594620498398752 0.12677615252541069 -0.90771018981933638 -0.49390158494313563 0.18262031534443732 -0.46022957682609517 -0.81584381103515624 -0.63881929016113281 0.16304399776458742 -0.10238425771395365 -0.92200099945068359 -0.10872945916703175 0.028873867256696831 -0.5314550161361693 0.17100035349527995 -0.52501491308212289 -0.6803776684829167 0.14296210924784339 -0.82557701110839543 0.046207297188895088 -0.81959590911865232 -0.91269973754882661 -0.84946933746337894 -0.03222518780827522 -0.86280727386474609 -0.14941368998800006 0.10636842683053786 -0.55926725864410398 0.0021881281674563232 -0.040272106940929697 0.31175201416015597 -0.17424942151705422 -0.81417610168457033 0.045146189729372635 0.022954900814878818 -0.037893520993789405 -0.63174074172973649 0.003609482266560749 -0.71396903991699223 -0.03372279632050975 -0.011186000823974607 -0.67423608398437496 0.01630316047370434 0.22337841415405257 -0.021277101304796001 -0.51216708864484539 -0.93267311096191408 -0.65073730468750002 0.010875657854432411 -0.49071286678314208 -0.46847704960749703 0.065992388725280737 0.15812625288963311 -0.67721332550048829 -1.0705970764160158 0.043302412941178058 0.11405238295351069 0.090399115562438986 0.31235843658447238 -0.1927567376030816 0.059711843646805866 0.053106359447751723 0.12611180067062377 -0.21665354864937919
leaf_weight=1950 1041 1.999999999999998 2.9999999999999991 46 8.0000000000000053 0.999999999999999 4.9999999999999991 9.9999999999999982 60 1.9999999999999989 391 215 4 11.999999999999998 7.9999999999999982 7 3 1.0000000000000024 6.9999999999999991 1.9999999999999989 2.0000000000000027 3.9999999999999991 40 1.9999999999999989 35 155 6 91 13.000000000000002 0.99999999999999989 30 1.9999999999999989 12.000000000000005 396 1906 4.9999999999999982 108 1.9999999999999989 588 5 4.9999999999999991 80 5.0000000000000027 9.0000000000000018 6.9999999999999956 0.999999999999999 5.9999999999999991 44 3.9999999999999991 12.999999999999998 1.9999999999999998 1.9999999999999998 3.9999999999999991 0.999999999999999 81 326 4.9999999999999982 0.99999999999999989 8.9999999999999982 29 175 2.9999999999999991 7
leaf_count=1950 1041 2 3 46 8 1 5 10 60 2 391 215 4 12 8 7 3 1 7 2 2 4 40 2 35 155 6 91 13 1 30 2 12 396 1906 5 108 2 588 5 5 80 5 9 7 1 6 44 4 13 2 2 4 1 81 326 5 1 9 29 175 3 7
internal_value=8.61942e-10 -0.023959 0.0993026 0.111703 0.048432 0.0178743 -0.187198 -0.0796696 -0.00328762 -0.128824 -0.0414505 -0.000596321 0.00713513 -0.0410531 -0.00765027 0.0692212 -0.342839 -0.0715861 -0.275163 -0.0938594 -0.108506 -0.0406008 -0.143728 -0.252511 -0.187976 0.0392119 0.045293 -0.0286892 0.0104049 -0.556361 -0.178639 -0.167194 -0.15543 -0.0381446 -0.0480999 -0.0140377 -0.0869288 -0.0094374 -0.0385345 -0.321463 -0.188137 -0.0308827 -0.195007 -0.126656 -0.236041 -0.0862637 -0.242069 -0.0100921 -0.0888186 -0.263202 -0.462742 -0.379919 0.0842362 0.000464408 0.0297183 0.105992 -0.18598 -0.479299 0.089953 0.0302022 0.0481691 -0.300318 -0.370222
internal_weight=8000 6445 1555 1289 248 202 26 21 2954 62 3491 2892 2428 464 1961 467 11 45 15 229 217 3482 81 41 37 266 263 99 235 8 114 112 110 3401 2407 994 501 110 598 10 20 103 23 21 16 67 22 45 16 43 7 8 422 87 82 335 9 5 164 30 176 11 9
internal_count=8000 6445 1555 1289 248 202 26 21 2954 62 3491 2892 2428 464 1961 467 11 45 15 229 217 3482 81 41 37 266 263 99 235 8 114 112 110 3401 2407 994 501 110 598 10 20 103 23 21 16 67 22 45 16 43 7 8 422 87 82 335 9 5 164 30 176 11 9
is_linear=0
shrinkage=0.01


Tree=15
num_leaves=64
num_cat=0
split_feature=3 3 0 6 2 6 5 4 2 3 7 7 0 2 5 8 8 9 1 0 5 6 6 8 5 6 8 5 4 6 6 1 3 4 3 9 2 4 5 6 7 7 0 7 6 3 2 1 6 2 5 2 0 6 6 1 1 1 8 8 2 6 7
split_gain=186547 22839.7 11356.5 12048.5 9966.84 12299.8 12455.8 9790.49 17363 12183.6 11386.8 23976.4 11577.2 9559.2 9473.93 9444.9 8650.73 9473.46 9447.91 14540.8 12505 9698.48 9354.79 8644.21 9629.51 15481 9495.38 8602.87 8451.95 8516.72 10522.9 8260.04 11802.3 9333.51 11404.7 8162.85 8100.66 9150.52 8010.27 7999.64 9349.16 8828.38 8295.28 9909.92 7991.91 7979.01 9435.62 7699.38 7678.12 7566.18 7459.45 7422.78 7413.33 7386.37 12123.9 11650.8 17852.7 9429.92 8029.35 9275.45 7370.27 8017.75 13044.2
threshold=250.00272247775027 248.51045980723026 19.500000000000004 4.04178111179115 17.345440976083285 4.5505693097095312 232.17163957845807 269.90902049121343 29.663648840203681 190.15503694323482 19.613602911835663 2.7559636324694599 12.500000000000002 15.063348585539098 240.89951211443361 0.78032145260915542 0.9324617901869473 0.021480886070780452 0.010191723971565701 18.500000000000004 238.97388490386018 -5.6421505208510849 -7.4121536969496438 0.99325834376069611 234.43484690172468 -6.0616162491560113 0.99636231362264849 235.9350475035906 130.34414057489079 0.61188866585761603 0.97913727647969473 0.023077043038252702 140.991491377318 225.14463964887833 205.50247727146919 0.043096203087117653 24.265186151319416 177.99371140654026 234.34867491646676 2.1579179878002068 -11.310082622729546 -1.9674811320657575 18.500000000000004 -11.974633506297328 7.1346123724099355 249.67073177293943 25.898596175380909 0.024182582583558154 6.8053199177685215 28.497426174568762 239.87479253628291 17.608760886321217 18.500000000000004 1.3132100912267752 1.3559885329152292 0.016633460907470806 -0.0096103152484781993 0.028953133261021554 0.93908757361522555 0.93692389659365605 21.461677311395139 -2.5057928542171548 -13.269702928742904
decision_type=2 2 2 2 2 2 2 2 2 2 2 2 2 2 2 2 2 2 2 2 2 2 2 2 2 2 2 2 2 2 2 2 2 2 2 2 2 2 2 2 2 2 2 2 2 2 2 2 2 2 2 2 2 2 2 2 2 2 2 2 2 2 2
left_child=1 7 3 -2 -5 6 -6 10 35 -10 11 14 -12 -3 -1 -8 18 -18 44 20 22 -21 -20 39 25 -25 -27 -17 -4 50 49 -13 48 34 -34 -9 38 -38 -36 40 42 52 53 51 -14 46 -43 -35 -33 -31 -30 -44 -41 58 57 56 -56 -55 59 60 61 62 -15
right_child=2 13 28 4 5 -7 15 8 9 -11 12 31 16 23 -16 27 17 -19 19 21 -22 -23 -24 24 -26 26 -28 -29 29 30 -32 32 33 47 36 -37 37 -39 -40 41 -42 45 43 -45 -46 -47 -48 -49 -50 -51 -52 -53 -54 54 55 -57 -58 -59 -60 -61 -62 -63 -64
leaf_value=-0.0012652080545112105 0.12550838011178286 -0.36651945961846244 -0.48896256446838382 0.18079410770665047 0.32798476219177219 0.047687459588050846 -0.0045573890209197974 -0.02972771045350537 -0.79138505172729501 -0.16212633013725281 0.0037606417917990472 0.10435728309397213 0.023632465953889646 -0.15757744213812194 -0.32661341349283851 -0.82723060607910159 -0.1894667707932623 -0.77317242940266928 0.15756583531697574 -0.92334640502929366 0.22526823401451113 0.085782126903533928 -0.43218513213671172 -0.84097461700439458 -0.031902936369180679 -0.3337904125452042 -0.012337331351111917 -0.2785043606758118 0.1053047388984311 -0.55367457389831543 0.0021662452456715341 -0.67044118881225589 0.12607601227859652 -0.32366252854466437 -0.34201332092285136 -0.43585583114624021 -1.0556267929077148 -0.30783095359802248 0.29084805250167839 -0.00057082955437296769 -0.037514587293016446 -0.62542335891723644 -0.063855971645850412 -0.70682931900024415 -0.50259249687194829 -0.033385563723895013 -0.011074150085449217 0.13102700727957267 0.30923484802246065 0.15654498696327201 -0.19082916895548505 0.10550148520358774 0.10308409098828777 0.16853532791137696 0.10657181104024252 0.045830563136509489 -0.56149814128875719 -0.91716251373291002 0.010787117676656756 -0.7940011596679688 0.097985298335552223 -0.077359818710210901 -0.57633630752563481
leaf_weight=1618 1041 8.9999999999999982 2.9999999999999991 46 4.0000000000000027 176 8.0000000000000018 485 4.9999999999999991 7.9999999999999991 222 334 76 106 8.9999999999999982 3.9999999999999991 38 2.9999999999999991 3.0000000000000027 1.0000000000000024 3.9999999999999991 20 26 3.9999999999999991 40 20 17 9.9999999999999982 155 6 91 3.9999999999999991 12.000000000000002 3.9999999999999991 4.0000000000000018 4.9999999999999991 1.9999999999999989 8.9999999999999982 4 307 1906 4.9999999999999982 65 1.9999999999999989 2.9999999999999991 588 5 54 0.99999999999999989 1.9999999999999998 8.9999999999999982 43 89 0.999999999999999 5.9999999999999991 13.999999999999998 12.000000000000002 4 61 1.9999999999999989 15.999999999999998 161 7.9999999999999991
leaf_count=1618 1041 9 3 46 4 176 8 485 5 8 222 334 76 106 9 4 38 3 3 1 4 20 26 4 40 20 17 10 155 6 91 4 12 4 4 5 2 9 4 307 1906 5 65 2 3 588 5 54 1 2 9 43 89 1 6 14 12 4 61 2 16 161 8
internal_value=-4.5059e-10 -0.0237194 0.0983095 0.110586 0.0479477 0.0176956 -0.185326 -0.00325474 -0.0434417 -0.404149 0.00499251 0.0144543 -0.0441082 -0.041036 -0.00306492 -0.278656 -0.105182 -0.232177 -0.0660335 -0.167977 -0.29888 0.0377284 -0.371176 -0.0401948 -0.142291 -0.249986 -0.186096 -0.435283 0.0388198 0.0448401 -0.0284023 0.0810517 -0.00175748 0.0248014 -0.115274 -0.0338719 -0.267705 -0.443794 -0.0255826 -0.0377632 -0.0476189 -0.0138973 -0.0860595 -0.00934303 0.00364924 -0.0381492 -0.318249 0.0996691 -0.474506 -0.37612 0.0890535 0.00357339 0.0227254 -0.107642 -0.242082 -0.170529 -0.338808 -0.700023 -0.0935905 -0.115321 -0.110657 -0.122796 -0.186964
internal_weight=8000 6445 1555 1289 248 202 26 2954 503 13 2451 2055 396 3491 1627 22 174 41 133 54 33 21 29 3482 81 41 37 14 266 263 99 428 94 89 31 490 19 11 8 3401 2407 994 501 110 79 598 10 58 5 8 164 108 396 391 37 32 18 5 354 293 291 275 114
internal_count=8000 6445 1555 1289 248 202 26 2954 503 13 2451 2055 396 3491 1627 22 174 41 133 54 33 21 29 3482 81 41 37 14 266 263 99 428 94 89 31 490 19 11 8 3401 2407 994 501 110 79 598 10 58 5 8 164 108 396 391 37 32 18 5 354 293 291 275 114
is_linear=0
shrinkage=0.01


Tree=16
num_leaves=64
num_cat=0
split_feature=3 3 0 6 2 6 0 1 9 5 2 4 2 2 7 7 0 5 1 8 6 9 5 2 4 6 6 8 6 7 7 0 7 3 2 5 7 2 4 2 8 3 8 2 8 9 9 2 2 4 2 0 5 6 8 2 0 6 6 1 1 4 8
split_gain=182835 22385.2 11130.5 11808.7 9768.5 12055 12232.6 10872.4 9706.27 12634.5 9368.97 8709.63 17429 11984.5 11053.3 22965.2 10496.6 9428.58 8823.64 8472.19 9450.01 9467.9 8956.47 20203.2 8283.75 8347.24 10313.5 7935.01 7840.45 9163.11 8652.7 8130.21 9712.72 7820.22 9247.85 7628.16 7446.13 7415.61 7358.44 7355.54 10243 15896.9 15892.5 9566.61 8320.5 8213.51 7351.86 7341.11 16407.7 10499.3 7354.98 7571.47 7311 7283.29 7280.87 7275.07 7265.8 7239.38 11882.6 11419 17497.4 9242.26 7869.57
threshold=250.00272247775027 248.51045980723026 19.500000000000004 4.04178111179115 17.345440976083285 4.5505693097095312 13.500000000000002 -0.0021808433365173995 0.040759357057888558 239.38664418208114 15.063348585539098 269.90902049121343 29.663648840203681 29.833556820623347 19.613602911835663 2.7559636324694599 12.500000000000002 240.89951211443361 0.0050865971008198507 0.99325834376069611 -7.0239034946682954 0.031819648746131156 233.04385521564384 20.924812996552109 130.34414057489079 0.61188866585761603 0.97913727647969473 0.99636231362264849 2.1579179878002068 -11.310082622729546 -1.9674811320657575 18.500000000000004 -11.974633506297328 249.67073177293943 25.898596175380909 232.85606640419118 2.5182362555203466 28.497426174568762 131.64960940646839 16.861165592243704 0.89123921064737133 268.68077140089997 0.86285350274650929 29.784658062558872 0.71514643583537674 -0.035578362011489846 0.048823076410160003 19.394887505124679 19.07213536380819 240.26026639465968 28.373162429409636 16.500000000000004 239.87479253628291 4.489612997572527 0.75850701573762869 17.608760886321217 18.500000000000004 1.3132100912267752 1.3559885329152292 0.016633460907470806 -0.0096103152484781993 269.90902049121343 0.93908757361522555
decision_type=2 2 2 2 2 2 2 2 2 2 2 2 2 2 2 2 2 2 2 2 2 2 2 2 2 2 2 2 2 2 2 2 2 2 2 2 2 2 2 2 2 2 2 2 2 2 2 2 2 2 2 2 2 2 2 2 2 2 2 2 2 2 2
left_child=1 8 3 -2 -5 6 7 53 11 -10 54 14 -13 18 15 17 -16 36 -14 28 -21 22 23 -22 -4 52 37 -18 29 31 56 57 55 34 -32 -25 -1 -27 -7 -28 41 -41 44 -44 -43 -46 -35 48 49 -40 -49 -52 -26 -6 -3 -33 -30 62 61 60 -60 -59 -12
right_child=2 10 24 4 5 38 -8 -9 9 -11 19 12 13 -15 16 -17 27 -19 -20 20 21 -23 -24 35 25 26 39 -29 30 -31 33 32 -34 46 -36 -37 -38 -39 47 40 -42 42 43 -45 45 -47 -48 50 -50 -51 51 -53 -54 -55 -56 -57 -58 58 59 -61 -62 -63 -64
