tree
version=v4
num_class=1
num_tree_per_iteration=1
label_index=0
max_feature_idx=9
objective=regression
feature_names=hour_of_day price_diff temp_c volume_lag_1h volume_lag_24h avg_volume_7d pct_change_price_7d pct_change_volume_7d traffic_score promo_interaction
feature_infos=[0:23] [-0.16994530922450379:0.20559439013209929] [15.006782075991454:29.973686636408239] [100.27201152226122:248.96357045952169] [100.38968828082126:248.96357045952169] [151.5852007720755:235.8577305101808] [-9.4815152435230683:9.3599964274592367] [-56.434295072352569:140.36595804122535] [0.70063797986151266:0.99950902511858042] [-0.16556290796135409:0.19646454540305089]
tree_sizes=2407 2558

Tree=0
num_leaves=29
num_cat=0
split_feature=8 9 6 5 6 2 1 2 5 4 1 5 8 2 2 5 2 8 3 5 3 3 0 3 2 5 1 0
split_gain=13683.9 15038.1 13041.1 13912.6 12842.3 11831.4 14498.5 11561.7 11384.7 11543.4 11991 9836.49 10722.9 9653.94 9803.13 8749.17 11525.5 7593.01 7395.59 7281.42 6651.15 10039.2 6090.97 5923.1 7081.64 5786.26 3427.7 2182.69
threshold=0.87009501403441836 -0.015522811366081898 0.91658553641154661 185.1726397813905 2.4623551962872328 21.274297173588387 0.056013590567600108 19.625799978988788 175.23725609535106 130.64589409844069 0.14726154025879731 174.08217642866205 0.8217243185836739 23.888009070415752 26.533432908518606 182.53686913809267 18.136217342665457 0.76321851488218506 173.49791229911349 174.76060692338834 190.9624816845276 169.53688683297483 10.500000000000002 149.62383398523124 16.485727590157861 170.95642749438767 -0.0092982679284885992 9.5000000000000018
decision_type=2 2 2 2 2 2 2 2 2 2 2 2 2 2 2 2 2 2 2 2 2 2 2 2 2 2 2 2
left_child=1 -1 3 5 8 7 20 23 11 22 13 12 25 15 -15 16 -11 -13 -16 -8 21 26 -10 -2 -25 -3 -7 -18
right_child=2 4 -4 -5 -6 6 19 -9 9 10 -12 17 -14 14 18 -17 27 -19 -20 -21 -22 -23 -24 24 -26 -27 -28 -29
leaf_value=177.83197425632767 176.035836643219 177.54467826952538 174.14830046117305 174.57999929675691 178.09888197422029 176.52493658239192 179.33780137956143 180.00094419419767 174.93670243697508 176.09495737234622 173.11918206691743 175.82142762124539 173.91349844226471 177.74018628882038 176.95189265060426 176.79107295227053 173.23884884834291 178.30523965403438 174.68619004081279 176.91970339572791 174.76966021806766 178.16977128234777 172.8689312665216 176.51407208898794 178.77289985622679 175.49062095105648 174.84340107317325 174.40243132139508
leaf_weight=33 25 24 20 26 20 22 20 20 28 38 20 20 26 36 25 25 28 32 34 33 39 22 29 23 35 32 27 38
leaf_count=33 25 24 20 26 20 22 20 20 28 38 20 20 26 36 25 25 28 32 34 33 39 22 29 23 35 32 27 38
internal_value=176.101 175.771 176.619 176.788 175.621 177.004 176.473 177.843 175.507 175.166 175.465 176.274 175.592 175.675 176.44 175.111 174.708 177.35 175.646 177.832 175.819 176.395 173.885 177.323 177.877 176.371 175.598 173.909
internal_weight=800 488 312 292 455 266 163 103 435 301 244 134 82 224 95 129 104 52 59 53 110 71 57 83 58 56 49 66
internal_count=800 488 312 292 455 266 163 103 435 301 244 134 82 224 95 129 104 52 59 53 110 71 57 83 58 56 49 66
is_linear=0
shrinkage=1


Tree=1
num_leaves=30
num_cat=0
split_feature=8 8 9 8 0 5 6 4 3 3 2 2 1 8 1 2 1 2 3 3 5 1 3 1 5 8 3 2 2
split_gain=11083.9 12831.9 20695.8 18698.9 11820.8 9820.47 10844.5 8612.38 9813.02 13357.2 10003.9 13598.8 11330.9 9494.26 8912.27 7819.51 16059.1 11543.8 8752.38 9187.17 6682.74 5914.09 8219.65 5648.73 4980.93 4902.71 4890.15 4043.81 2649.75
threshold=0.87009501403441836 0.85319047696388228 -1.0000000180025095e-35 0.84362627093593356 22.500000000000004 185.1726397813905 0.91658553641154661 109.16724403231352 160.83243997705549 134.9489194654723 19.996154174546177 24.152256635595375 0.0088682740280019018 0.77368325743759159 0.07744627708206106 21.274297173588387 0.092970593749977612 19.625799978988788 199.35844865863791 169.53688683297483 177.19166087217968 0.074826669951227151 113.29620571058764 0.0075671352493386504 176.57499509419367 0.95338788692856935 208.77719219541987 26.273212161892811 26.957850771893956
decision_type=2 2 2 2 2 2 2 2 2 2 2 2 2 2 2 2 2 2 2 2 2 2 2 2 2 2 2 2 2
left_child=1 2 -1 7 5 6 15 -4 9 21 14 26 -13 -11 20 17 18 24 19 27 -10 22 -9 -3 -2 -26 -12 -17 -14
right_child=4 23 3 -5 -6 -7 -8 8 10 13 11 12 28 -15 -16 16 -18 -19 -20 -21 -22 -23 -24 -25 25 -27 -28 -29 -30
leaf_value=2.3099188201129439 -0.089209674386417165 -3.0743740016763863 -2.290360791866596 1.8818782302311492 2.8174402236938478 -1.5907982697486878 -1.7577857628092168 -1.5225789856910705 1.462134702389057 0.238486241377317 -3.5875900373458864 -2.0021562114357949 -0.30841209086088034 2.9966707070668539 -1.698855882741156 -1.2218981352719396 2.4811664416239814 3.5095934009552003 -1.6476479456280217 1.6202358841896058 -0.78617488503456112 -1.6565292267963807 1.0058716912443439 -0.75231198430061341 2.6149768329802017 0.42728836536407472 -1.6938872448603313 0.41199843159743721 1.1334735221862793
leaf_weight=32 34 22 26 35 20 25 20 20 39 26 25 32 26 24 21 33 26 20 33 32 20 29 36 20 21 20 30 28 25
leaf_count=32 34 22 26 35 20 25 20 20 39 26 25 32 26 24 21 33 26 20 33 32 20 29 36 20 21 20 30 28 25
internal_value=-1.60169e-08 -0.297625 -0.140266 -0.329652 0.465516 0.304425 0.481881 -0.533883 -0.404511 0.26549 -0.81942 -1.3352 -0.527119 1.56241 0.0702973 0.66323 0.218413 1.37494 -0.248504 0.247966 0.699996 -0.497406 0.102854 -1.96863 0.805695 1.54781 -2.55466 -0.471913 0.398395
internal_weight=800 488 446 414 312 292 267 379 353 135 218 138 83 50 80 247 152 95 126 93 59 85 56 42 75 41 55 61 51
internal_count=800 488 446 414 312 292 267 379 353 135 218 138 83 50 80 247 152 95 126 93 59 85 56 42 75 41 55 61 51
is_linear=0
shrinkage=0.1


end of trees

feature_importances:
temp_c=12
volume_lag_1h=10
avg_volume_7d=9
price_diff=8
traffic_score=8
hour_of_day=3
pct_change_price_7d=3
volume_lag_24h=2
promo_interaction=2

parameters:
[boosting: gbdt]
[objective: regression]
[metric: rmse]
[tree_learner: serial]
[device_type: cpu]
[data_sample_strategy: bagging]
[data: ]
[valid: ]
[num_iterations: 100]
[learning_rate: 0.1]
[num_leaves: 31]
[num_threads: 0]
[seed: 0]
[deterministic: 0]
[force_col_wise: 0]
[force_row_wise: 0]
[histogram_pool_size: -1]
[max_depth: -1]
[min_data_in_leaf: 20]
[min_sum_hessian_in_leaf: 0.001]
[bagging_fraction: 1]
[pos_bagging_fraction: 1]
[neg_bagging_fraction: 1]
[bagging_freq: 0]
[bagging_seed: 3]
[bagging_by_query: 0]
[feature_fraction: 1]
[feature_fraction_bynode: 1]
[feature_fraction_seed: 2]
[extra_trees: 0]
[extra_seed: 6]
[early_stopping_round: 0]
[early_stopping_min_delta: 0]
[first_metric_only: 0]
[max_delta_step: 0]
[lambda_l1: 0]
[lambda_l2: 0]
[linear_lambda: 0]
[min_gain_to_split: 0]
[drop_rate: 0.1]
[max_drop: 50]
[skip_drop: 0.5]
[xgboost_dart_mode: 0]
[uniform_drop: 0]
[drop_seed: 4]
[top_rate: 0.2]
[other_rate: 0.1]
[min_data_per_group: 100]
[max_cat_threshold: 32]
[cat_l2: 10]
[cat_smooth: 10]
[max_cat_to_onehot: 4]
[top_k: 20]
[monotone_constraints: ]
[monotone_constraints_method: basic]
[monotone_penalty: 0]
[feature_contri: ]
[forcedsplits_filename: ]
[refit_decay_rate: 0.9]
[cegb_tradeoff: 1]
[cegb_penalty_split: 0]
[cegb_penalty_feature_lazy: ]
[cegb_penalty_feature_coupled: ]
[path_smooth: 0]
[interaction_constraints: ]
[verbosity: 1]
[saved_feature_importance_type: 0]
[use_quantized_grad: 0]
[num_grad_quant_bins: 4]
[quant_train_renew_leaf: 0]
[stochastic_rounding: 1]
[linear_tree: 0]
[max_bin: 255]
[max_bin_by_feature: ]
[min_data_in_bin: 3]
[bin_construct_sample_cnt: 200000]
[data_random_seed: 1]
[is_enable_sparse: 1]
[enable_bundle: 1]
[use_missing: 1]
[zero_as_missing: 0]
[feature_pre_filter: 1]
[pre_partition: 0]
[two_round: 0]
[header: 0]
[label_column: ]
[weight_column: ]
[group_column: ]
[ignore_column: ]
[categorical_feature: ]
[forcedbins_filename: ]
[precise_float_parser: 0]
[parser_config_file: ]
[objective_seed: 5]
[num_class: 1]
[is_unbalance: 0]
[scale_pos_weight: 1]
[sigmoid: 1]
[boost_from_average: 1]
[reg_sqrt: 0]
[alpha: 0.9]
[fair_c: 1]
[poisson_max_delta_step: 0.7]
[tweedie_variance_power: 1.5]
[lambdarank_truncation_level: 30]
[lambdarank_norm: 1]
[label_gain: ]
[lambdarank_position_bias_regularization: 0]
[eval_at: ]
[multi_error_top_k: 1]
[auc_mu_weights: ]
[num_machines: 1]
[local_listen_port: 12400]
[time_out: 120]
[machine_list_filename: ]
[machines: ]
[gpu_platform_id: -1]
[gpu_device_id: -1]
[gpu_use_dp: 0]
[num_gpu: 1]

end of parameters

pandas_categorical:[]
